107 100
. -0.33102855 1.840346 1.1640295 0.8368542 0.88298416 -0.845418 0.289147 -0.32785258 0.29904488 1.5577323 -0.7836924 0.18169868 -3.2113903 0.4365742 1.0930098 0.46709582 -1.5175399 -0.36003864 0.108195595 -0.6458126 0.8677446 0.19107583 -0.42476022 -0.18512714 -0.6820007 0.41403788 -0.54759085 1.6480414 0.34392923 1.1279976 1.0048798 -0.7435663 -0.8412457 -0.06852065 -0.18376265 -1.3536197 1.3355336 0.18185149 0.7446839 0.9805883 0.056465212 -0.10722341 -0.8163754 0.03754079 -1.1954306 0.3964467 1.0611634 -0.40315148 -0.60526264 -0.60738707 0.5739153 1.325013 -0.02757876 0.24657841 1.0427786 -0.6837366 -0.5314864 -1.1923814 0.89006066 0.4596129 0.63650584 -0.80592346 -0.49086758 -1.4637698 0.8880061 -1.2884687 -0.32708114 1.1572928 -0.35170358 -0.6843144 0.80484474 -0.3828775 -1.1829623 0.3932855 1.1765449 -1.0560343 -0.65822387 -1.0948044 0.064735554 -1.7307662 -0.6560416 0.5464616 1.9235982 0.30275673 -1.0493822 0.32609293 -0.09997137 0.11824576 0.13693589 -0.16937968 0.35308433 0.3239106 0.19847913 0.59881157 -0.051243223 0.64191234 -0.6868533 0.2883556 -0.11833081 -1.7795818
/ -0.21709411 1.3010732 -0.7000076 -0.61649644 0.22111326 1.5925784 1.546139 -1.3268106 2.1891673 0.11606215 -0.18141888 -0.7500547 -1.8883688 0.37957156 0.8360124 0.8264642 -2.5341694 0.28970698 -0.93474424 -1.0871463 0.40218312 -0.6873815 1.3937172 -0.06625702 0.44119853 1.8490833 -1.1603062 1.9608737 2.7656412 1.8044432 2.3434463 -0.7284522 -1.0993534 0.83955914 0.45981738 -2.4173567 1.0714308 -0.8906424 -1.231236 -0.980664 -0.18072201 0.27138478 -1.1950616 -1.1153005 1.5270398 -0.43422684 1.16706 -1.1501163 0.8161714 -0.5683463 -0.4311774 -0.6260025 0.64859015 0.46762472 -1.1139967 0.4088602 -0.60335165 -2.5045903 -1.4380828 1.0416772 -1.0085901 -0.19434601 0.51250964 0.062972724 -0.38530618 -1.5150343 -0.8918235 0.6754455 -0.6579948 -0.8418109 -0.35588002 0.30889767 3.1387591 -0.6855341 0.81911564 0.890279 -3.2722216 -0.8509314 0.018811466 -2.0502596 -0.762418 1.7447627 2.1303036 3.1171227 0.4701025 -0.06624578 0.40565416 3.180499 0.02438695 0.81965095 0.3235972 -1.1454931 0.4765168 0.19537237 -1.2867528 0.5716461 0.84831405 1.5524957 -0.1309545 -1.4346476
5 0.004572187 0.053866353 -0.4056852 -0.35316208 -0.39813966 1.2127055 0.043717697 1.3615103 -0.26338452 -0.31584042 0.45588377 -0.47829995 1.0463941 -0.11004647 -0.06629333 0.19475432 0.22706592 -0.3744301 -0.47017932 1.0072892 -0.25277454 0.7286168 -0.82498085 -0.11575782 -0.43087164 0.41719255 0.30904263 -0.5437163 0.06695554 0.2208168 -0.14752533 -0.3170047 1.2716795 0.1787613 -0.11950644 0.330735 0.44908524 0.03809366 -0.27478975 0.589797 0.25178128 -0.792296 -0.19482675 0.33761507 -0.09413704 0.95057964 -0.58816576 1.2035022 0.8697288 -0.4867236 0.0099618565 0.21040535 -0.121440105 -0.8286847 -0.14142972 -0.8328069 0.17881921 1.1173632 0.44036132 0.13479276 0.6785356 -0.67724115 -0.22901635 -1.7951602 0.09476501 0.42037195 -0.8267814 0.3349871 0.24527547 1.4289402 0.98271894 -0.33430657 -0.1724418 -0.24740152 0.6726712 0.76119053 0.020606883 0.49414152 0.010611427 0.8412092 0.30924898 0.29588673 -0.7885784 0.37530506 0.046713952 0.76783425 -0.37247354 -0.7621014 -0.17549506 -0.10658679 -0.75759673 -0.36531213 0.929819 0.5290662 0.86608 1.1022569 0.22655477 -0.81668776 0.20934467 0.35604402
C 1.2566869 -0.76765 -0.40125507 -0.5892057 -0.44385624 0.8087868 0.75387895 -0.68887854 -0.78966707 0.76301634 0.31618574 0.11681187 0.46225557 0.17440672 -0.0029204711 -0.0067448844 0.1565117 0.09797598 0.626788 0.5931972 -0.95913976 0.6594992 0.22189821 -0.4366548 -0.45367116 1.3988255 0.053415075 -0.32983997 0.043684058 -0.6139558 -0.3120001 -0.15541348 0.5718152 -0.97946817 -0.30619538 0.014398591 -0.51515144 -0.46243942 -0.16116202 0.9365278 0.3991391 0.08394079 -0.72347933 0.34717023 0.5412092 -0.7277191 -0.21675606 2.2245684 0.11996586 -0.6701997 0.2220423 -0.3328566 -0.54660505 -0.15632753 0.38342753 -0.81307274 0.012258445 0.50399095 0.51932627 -0.07599071 -0.20160915 0.17068918 -0.6088953 -1.1698294 0.106411055 -0.58783084 1.0891995 -0.15579122 -0.3499111 1.2003537 0.24967772 -0.42231444 -0.4538735 0.4235371 0.41649488 -0.10196496 1.1974431 0.84428483 0.28490597 0.8293105 0.38356805 0.01595211 -0.5171155 0.78429747 0.06931888 -0.41487694 1.2867864 -0.021240672 -0.36909184 -0.8207565 -1.0563532 -0.5943858 -0.208983 0.08626556 0.69408613 -0.26038828 0.13963978 -0.55607855 -0.47547337 0.06798599
\ 0.5500369 0.14272259 -0.75130326 -0.06310366 0.7338407 -0.07586358 1.3068234 0.31767058 -0.7256112 -0.5004025 -1.6091146 0.32665905 -0.123324364 0.4898595 -0.4147446 -0.5125924 -0.030139526 0.8957591 1.1568843 -0.69993204 0.31771913 -0.78946424 -0.16166691 -0.38530657 -0.28401688 0.87269574 -0.47903767 0.5447294 0.75856686 0.28408563 0.74163234 -0.25804085 0.6379368 0.062273584 0.20214766 -0.099417 0.9345335 -0.50541157 -0.014903476 0.5169551 0.123366006 0.25715262 0.07516806 0.08192254 -0.6054174 0.007996507 0.3167832 0.7496669 -0.15530722 0.5789201 -0.84108245 0.5292642 -0.34414476 -0.15832196 0.41554424 -0.7463719 0.81883264 -1.0055772 0.41046643 -0.06906188 -0.47259328 1.5105538 -0.97425604 -0.2717339 0.5440981 -0.56190825 -0.07659848 0.47596192 -0.26994476 0.3264861 -0.40144768 -0.7598805 -0.40755755 0.022394335 0.46967864 -0.6659981 0.59292245 -0.894241 -0.19011638 0.5147935 0.061532315 0.29919818 0.17535627 0.27225292 -0.39466637 0.3087203 -0.29689738 -0.30049434 0.14261435 0.39871755 0.24185137 -0.5884234 -0.8650924 -0.11890434 -0.64847195 -0.020533565 -0.9036744 0.16861789 -0.1614176 -0.59233713
x 0.47744262 -0.011209856 -1.0816765 -0.6966908 0.23616724 -0.11428033 0.44208577 -0.5025701 -0.32996917 -0.4133764 -1.1395191 0.07025568 0.89327633 0.00758117 -0.9239247 0.11175927 0.41885555 -0.080575354 0.82778525 -0.8220272 -0.43954057 -1.4051334 0.11927154 -0.28591472 0.26651797 1.3098502 0.13741921 -0.37676406 1.3094702 0.03268018 0.41832897 0.2589065 0.45287386 0.25579828 0.602433 0.49380714 0.3076559 -0.06892253 -0.3919056 1.3836042 0.10935061 -0.0736754 -0.5400028 -0.14289467 0.2826332 0.20594765 0.30458295 0.36411637 -0.40921345 0.77581066 -0.64850444 0.26269946 -0.7262836 -0.3286371 0.34040114 -1.0010166 0.9279512 -0.5775536 0.2110663 -0.008253473 -0.29615283 0.73153013 -0.49784106 -0.58814687 -0.056137703 -0.49222255 -0.34450415 0.45936742 0.41425988 0.85892767 0.17140587 -1.2291063 -0.6296776 0.123605505 0.54325956 -1.1267287 1.0006455 -0.105716206 -0.59636503 0.40379527 0.26277328 0.5440062 -0.6856095 1.0033484 -0.041419823 0.5565337 0.01920918 -0.36096382 0.024709187 0.03127668 0.3640705 -0.8629616 -0.21209921 0.15556102 -0.21050203 -0.243751 -0.6318537 -0.15016492 -0.04200715 -0.24067992
e -0.4693155 -1.1836169 0.5289419 0.3345608 -0.024466483 -0.36813676 -0.40211353 1.1188207 0.21253085 1.1426331 0.54747355 -0.08814385 0.7139672 -0.06219239 -1.7480649 -0.46111014 -0.16310048 -0.5265327 -1.8054994 1.0482074 0.37392116 -0.16308212 -0.59348285 -0.6555489 -0.74929845 0.43037903 -0.5193246 1.4379898 -2.38377 0.07646537 -1.6589634 -0.68531656 -0.2346565 0.6994505 -0.18747517 -0.23615779 -0.3508282 -0.20489354 0.1971917 -0.4421534 -0.82649916 -0.7710636 0.03506563 1.0541044 0.037040774 0.45590013 -0.25001013 -0.031243881 -0.8463518 0.59686375 -0.7763032 0.42879653 -0.2864709 -0.03885887 0.49012813 0.22813857 0.3737505 -0.26627576 -0.39791188 -0.7549672 -0.10769956 0.83528626 0.27715477 0.7288383 -0.37460878 0.91581327 0.8370761 0.5903127 -0.6505005 -0.82533574 -0.6364889 0.117563784 1.0981035 0.57104474 -0.647531 0.42413503 0.4749034 0.19944812 -0.90519786 -1.6767826 -0.601996 -0.75305074 0.9764863 0.083362445 -0.30143222 0.62684965 0.21378426 1.80514 -0.66226816 0.5553378 0.9675847 -0.46670145 -1.6398387 -0.5730394 0.60314095 1.1393007 0.5296585 1.2353028 -0.26281065 0.9481955
s -0.04872357 -0.95187956 1.5650799 1.162042 0.7369879 -0.94658476 -1.1996661 0.1626471 0.3454924 -0.54261166 1.9726576 -0.21653457 0.9233666 -0.45267618 -0.45661727 0.19669655 -0.436246 -0.53042126 -0.55370194 -0.10445495 0.3202068 -1.0196005 0.88282895 -0.2284184 -0.21495055 0.24705 -0.09856631 1.2685314 -1.5070466 -0.16609444 -0.30112112 -0.44499192 0.9576205 -1.02108 -0.12903766 0.09749442 -0.8363375 -0.5491247 0.68760973 0.009478299 -1.6305703 -0.74154574 0.015476389 0.17328796 -0.5886387 -0.37122607 0.06147817 -0.15786411 -0.54413265 0.6252585 -0.8490204 0.2917672 0.72564596 -0.95359576 0.37827855 -0.60282487 -0.91843724 -1.0677863 0.41544095 -1.3151284 0.4403021 -1.7873719 0.48044395 1.0128046 -0.07605163 0.6232455 -0.19082655 -0.27001324 -0.14284766 0.13188234 -0.7488671 -1.1260477 0.6318195 0.21769932 1.6953851 -0.27726352 0.27589497 0.17300229 0.29178056 -0.99867237 -0.4681745 -0.6715692 0.7011337 0.26063305 -0.9809583 -1.2382358 -1.4541575 1.9210107 -1.0744016 0.057933737 1.7225709 -0.2346511 -0.49253124 -0.015676722 -0.71187174 -0.03240092 -0.46789947 -0.5541036 0.35233432 -0.4952831
a -0.8138718 -1.4941072 0.95960414 -0.01674693 0.36455563 -0.022408728 -1.7713778 -0.019640084 -0.40481424 0.14469668 0.052660268 1.3017092 -0.8955964 1.0042151 -0.36875775 -0.49795628 -0.39057654 -0.87275416 -1.2883376 -0.32520577 -0.15487926 1.3289374 -0.39388853 -0.330642 -0.66951776 -1.6979996 0.09380911 -0.4911099 -1.1197351 -0.63442504 -0.6894356 0.1131724 0.67130643 0.3025389 -0.6038158 -0.23418611 -0.6153505 0.44643238 -0.45319992 -0.45960483 0.077013545 0.19357449 0.7225349 0.6745917 -1.1553248 -0.36057544 0.5757454 1.3184725 0.43507123 1.0071392 -1.5660919 0.20530428 -0.55718696 -0.42378202 -0.54562944 0.17387098 -0.6675838 0.47924483 -0.6506217 -0.3301057 0.18041451 0.20056064 0.08106007 -0.5033893 0.10687953 0.40855145 1.8028755 0.5975263 0.19143711 -0.22599939 -0.31055704 0.6962382 -0.9279388 0.444854 -0.8058963 -0.44451755 -0.54902637 -0.026003486 1.4067518 -0.51891756 -0.7081616 -0.5392039 2.2058842 -0.39390573 0.44453168 0.79566246 1.2136872 0.56151694 -1.0499136 1.1009456 -0.5344783 1.1219199 -1.0754981 0.794017 -0.45960987 0.2949696 -0.7259248 0.6974722 -0.3476798 0.5705291
i 0.82435846 -0.16719188 1.8670607 1.111033 0.88352686 -0.3762356 -1.4726806 -0.70538735 -0.9517557 0.17938495 0.0064949053 0.11756485 -0.73427784 0.4037051 0.14854084 -0.8796785 -1.4966905 0.2800794 -0.5654956 -0.9042181 -0.050818022 0.6498518 -1.4202973 -0.73144996 -1.0230472 -0.25769272 -1.3238423 0.9147536 -0.41994053 -1.2070225 -1.689511 -1.4210452 -0.030788304 0.2921336 -0.10725405 0.18336378 -0.5240595 0.33695632 -0.9296139 -0.838068 0.15929382 -0.03574258 0.032190096 0.30680934 -0.85458094 -0.15174247 -0.24016398 -0.56362283 -0.7980145 -0.17398855 -0.12456498 -0.5277207 0.68228364 -1.0006957 -0.8092858 -0.49524936 0.0055311965 -0.5868995 -0.47089383 -0.17635407 0.62572056 -0.5783474 0.81624955 0.9354613 -0.12490036 0.33481842 -0.76853377 -1.0708159 -0.8340352 1.0355182 -1.0791794 -0.04984757 -0.7382115 0.39823303 -0.10025866 0.730031 1.2765529 -0.04135272 -0.0049115773 0.14494681 -1.2950475 -0.635285 1.4089665 0.7728769 -0.70506424 -0.026442671 -0.27177352 1.8093364 -0.6649235 0.79498786 0.8958698 0.85675627 -1.7015069 -0.11647981 -1.4028238 0.67945665 0.6011176 0.1504594 -0.17475483 0.022914967
o 0.18240249 -1.0198274 1.8890843 1.6342592 1.4666662 -1.5142149 0.209788 0.82070094 -0.30003572 0.9703211 1.0363894 -0.18978272 0.4901195 -0.051008638 -1.1026063 -1.7999631 -1.6313462 0.8524438 -1.4033873 0.5977384 -0.9343303 0.9673622 -0.79960686 -1.0023273 -0.7113704 0.20055602 -0.63236505 1.2074091 -1.2679151 -1.0155547 -1.1896006 -0.59595674 -0.3019993 1.066014 0.42314798 1.597013 0.15368184 0.1246923 -0.04918494 -1.0051246 -2.8491514 0.41932625 -0.6124919 0.34929925 -0.80777484 0.40512824 -1.3200251 -0.56071484 -0.7024927 -0.5626651 0.1371279 -0.6917086 0.63769233 -0.5062247 -1.3526682 -0.2159026 -0.33923772 -1.9700195 -0.81093925 -0.739513 0.08031687 0.16207862 1.1409308 1.6447017 -0.08025896 -0.056517735 -0.72914 -0.60960114 -0.7086352 0.20753935 -0.7213349 -0.13408789 -0.22661217 -0.16330819 0.13171224 -1.4540021 0.97990566 -0.5701489 -0.545107 -0.94026417 -0.040281687 -0.4796924 0.6630627 0.9119553 -0.6221945 0.3493166 0.48385257 1.1268519 -0.7164338 2.0569012 1.1388954 1.1340097 -1.9011273 -0.5109033 -0.46169245 0.72941315 -0.045003247 0.2857931 0.43899915 -0.08296921
n -0.7608389 -0.57797027 1.6249709 -1.1157018 0.93111616 -1.8726096 0.2090666 0.2325241 -0.19294 0.10477003 1.955763 0.11387509 0.53141314 0.6353117 -1.0073946 -0.8658494 -0.26538312 0.36340004 -0.4550926 0.7072168 0.24073023 0.3280315 0.54978156 0.30411366 -1.0323879 -1.8074832 0.09382736 1.2407306 -2.1160672 0.9260153 -0.7185738 -0.8143522 1.3232393 0.09291597 0.33290184 -0.58052504 0.6643299 1.239241 0.7511989 -0.5228631 -1.3483645 1.0241207 -0.4941029 0.24888581 -1.1874893 0.61361194 1.0493027 -0.51222146 -1.2508374 1.1047673 -1.3447242 0.31774387 -0.5227717 -0.726213 -0.2521324 0.77278125 -1.9702716 0.17332046 -0.5286523 0.35894942 1.6188688 -1.4895833 0.40291876 0.18783054 -0.013006607 1.1473053 0.8242926 0.5496153 -0.42957646 0.3090801 0.657605 -0.6170595 0.80082184 -0.7236179 0.39171967 0.35943756 0.8665323 0.15572818 1.7116826 -0.42216823 -1.1067641 -1.458575 0.19856101 -0.17233962 -2.7753968 -0.18132292 -0.5061434 0.43426526 -0.8798262 1.0074446 1.4175286 0.3679632 -1.848965 -0.26681602 1.2309604 -0.2361803 -0.47198758 1.1617415 -0.2118283 0.046049207
t -0.2479118 -2.461725 0.46369112 -1.2228492 1.7451223 0.015195766 -1.5272626 -1.2880689 -0.018914092 0.31275004 0.023831246 -0.6823704 1.1398318 1.301349 -0.68892056 -0.28243524 -1.1330174 -0.33592403 0.8904979 -0.38145316 0.99683714 0.4040063 0.56450117 -0.12889865 0.581961 -0.60200965 0.28972292 0.2454943 -0.2851278 -0.32744673 -0.52251774 -0.018495766 -0.5232665 0.07628851 0.22828707 0.6065103 -0.48926604 1.571242 -0.5549108 -0.077401556 0.69541484 -0.7901354 -0.71381074 0.36298463 -0.29661185 0.38781688 1.1097139 -1.2789445 -1.2160393 0.51918435 -1.0405818 -0.9635781 -0.43134788 -1.1791481 -1.0953692 -0.15881553 -0.06241781 -0.15410808 -1.2162901 -0.6580483 -1.6973096 -0.12541707 0.7947133 0.8773524 -0.4651892 0.21730597 -0.0878632 0.99115705 -0.1953581 -0.7993436 -1.790071 -0.20856087 -0.73271143 0.47994766 -0.89494586 -0.77670693 0.10171915 0.13477126 -0.6632668 -0.5065536 -0.65929747 0.8927384 0.60696304 0.835813 -1.5533292 0.2694075 -0.11373729 1.3138471 -1.2466094 1.3064998 1.6013838 1.3718188 -1.5976374 -0.46768364 -0.78765607 1.0360348 0.56740963 -0.47546324 0.45691276 -2.10498
0 -0.67126626 0.40038893 0.05539094 -1.3516921 0.7651837 -1.2732202 -1.7788433 -0.43410417 -1.2407408 1.7326136 1.3096871 0.62318134 0.23098916 0.14483358 -1.636124 1.6383015 -1.1212888 -1.4612849 -0.68790895 1.8758589 -0.7614489 1.2469835 -2.4295406 1.0291151 0.047721636 -0.73943233 0.51043975 -0.9892335 -1.4530711 0.981977 -1.2695134 0.78323674 0.4814016 1.738516 0.30938455 2.0663688 -0.51135534 1.378879 -1.1312064 0.31364858 -0.8844056 0.27680603 -0.0112680225 1.3551706 -1.5412364 0.60472476 0.59446394 1.2886873 -0.042800833 -0.5060014 -0.7653097 0.2344454 -0.72455555 -0.893806 -1.3690387 1.6119428 -0.1124047 -0.9508012 -1.1811696 0.33345374 0.9592156 -1.0983105 1.0616479 -0.023376564 -0.9103952 3.211502 -1.0881188 0.64654446 -0.9099833 -1.0883567 0.38288173 0.066363074 -1.0095994 -1.2618055 0.7572787 1.6707455 0.7524512 -0.56903607 1.4557639 1.5051287 0.9938749 0.83207977 0.4126951 -1.7994093 0.4153958 1.7258661 -0.71579844 -0.8950141 0.3872627 0.45401388 0.09731899 1.7215323 0.37988842 1.022178 2.083149 0.7678134 1.2730618 0.53207225 0.8347419 1.0185139
= -1.7143667 0.38460815 1.443472 -0.46288162 0.9511011 -0.8125118 0.10556684 -1.2647432 -1.075844 -0.084135324 1.5978165 -1.8871092 1.7366945 -0.67988485 -1.4470202 -0.014168703 -1.8902361 0.040833663 -2.4171774 0.5645349 -0.25743204 2.504267 -1.4021529 -0.108745605 0.5703609 0.18298972 -2.0165098 1.779303 -1.7221401 -0.33397645 -0.29632938 -0.652083 0.5974147 1.051214 -0.06439669 -0.92324835 -1.2407316 0.085016295 -0.303325 -2.2438045 -1.8202984 1.2651317 -1.4680381 1.9994293 -1.5971583 0.5394885 1.9486512 0.81005025 -0.019269742 1.0333613 -1.074604 0.32963777 1.4374859 -2.7337499 -1.3020277 -0.53757757 0.02163353 -0.10020722 -0.8608787 0.49058965 1.0453328 -0.8466481 1.2338706 0.48332185 0.5984687 2.06599 -0.51558167 0.3394171 -0.028457006 1.0016166 1.0030375 -2.2882476 0.069135435 -1.2629521 1.2915887 -0.2826718 -0.50908756 1.6514322 0.045068115 -0.48870146 -0.3702719 -0.4756966 0.20431602 -0.3274696 0.1202547 -0.56766665 0.028186692 1.5050468 0.21480593 0.7537973 -0.24209172 -0.2863344 -0.98879343 1.1768252 1.8053255 -1.523009 -1.6365347 2.8898904 1.470754 3.5211844
c -0.78409487 -1.6066538 1.2190815 0.39672273 -0.2570706 -0.920606 -0.2946254 0.38524985 0.72093976 -0.3109806 -0.48351863 0.13195218 1.2579329 -1.1500105 -0.89790785 0.28871715 0.028632803 0.02376236 0.2863476 0.98839086 -0.46541777 1.0152074 -0.6363318 -0.7177726 0.61307013 -0.734677 -0.30233037 -0.01600928 -0.9525328 0.41921356 -0.43150818 -1.1795715 -0.3251129 -0.071219414 -0.0081573995 -0.3631155 -0.7203635 0.41777092 -1.4034152 -0.025353802 0.41127473 -0.5838293 -0.5745568 1.8222399 -1.0643632 0.48919487 1.302229 -1.4712125 -1.1892699 0.74978465 -0.69749296 0.047946606 -1.0790055 -0.98127174 -0.6465655 1.5706798 -0.9397416 -0.47529012 -0.9896811 -1.7167178 -0.15364896 0.37924916 -0.2581188 0.41513398 -0.8469001 -0.5671704 -0.84792733 0.60011256 -0.44058183 0.17454614 -0.169245 -1.0423223 1.487799 -1.5880085 -0.09507793 0.2819022 -1.017791 -0.29815838 0.57927084 0.34219837 -0.35456276 1.6528851 -0.072991535 0.25307602 -0.47750247 0.7378939 0.30285358 0.86205846 -0.5760916 1.009341 -0.13312304 -0.15755261 0.27145305 -0.702456 -1.2430605 -0.68324196 0.54440814 0.19413197 -0.59278727 -0.5986592
2 -0.5564071 0.4976431 0.3468007 0.3861302 -0.05429768 -1.1047294 0.13125566 0.4796716 -2.23142 -0.35697198 0.075142495 -0.71887076 0.56497645 -0.07101106 -0.10538222 0.26833335 2.223064 0.71837837 0.42249697 0.32639706 -0.34187195 0.037233606 -0.2297148 -1.3148594 0.27349177 -1.5165547 0.25447053 -0.47947598 -1.0747453 -1.2862499 0.01794046 1.003706 0.5277822 0.57520014 -1.5922397 0.3892516 -1.5559403 -0.2643476 -0.17014785 0.9985604 -0.2019941 -0.38821483 -0.902385 0.19543947 -0.9795457 0.88727474 0.034349773 0.34706476 0.09916803 0.8231104 0.842746 0.34235 -0.41857278 -1.186895 -0.39532715 -0.57746977 0.043843824 0.3578245 0.79497284 0.90677136 0.890813 -0.7717566 -0.82903296 -0.5580652 -1.0735881 1.1067888 0.0015518859 0.99194694 0.54096407 -0.297889 -0.6445559 -1.0827215 -0.39134443 -0.21669371 1.0949392 -0.47352302 -0.36443684 -0.3624764 1.3309792 0.67754745 0.8001927 0.25605464 -0.24007304 -1.3701051 1.0585922 0.8192934 0.16143629 -0.72633404 0.5310541 1.2856898 0.00117736 -1.1699417 0.32911378 0.320398 0.34241673 1.5566828 0.21677428 -0.22013879 -0.079639696 1.4019775
1 -0.7468347 -0.060378823 -0.049096894 -0.31237075 0.31832042 -0.7433039 -2.0110483 0.5060283 -0.6856602 1.136224 1.23862 1.3162335 -0.4962728 -0.3735981 -0.54255277 1.3093903 -1.0606109 -1.5222335 -0.8792029 1.5050371 -0.06741626 0.8333691 -2.0751324 0.3473198 1.4177581 -0.3596508 0.07267879 0.19359508 -1.7827201 -0.38226533 0.4878889 -0.22284523 1.6889505 1.8611954 -0.20329493 -0.05927314 -0.7839715 -0.782549 0.047581114 -0.5590749 -0.24376886 0.46380305 0.8871044 0.6942766 -0.24859008 0.4383373 0.5046392 1.7656903 -0.043197505 -0.25310725 -0.098643586 -0.19197482 0.78402716 -2.1937487 -1.7798239 1.1788517 0.2138642 -1.2560252 0.19724798 -0.3240653 0.5297343 -0.173535 0.4561297 0.611547 -0.059286647 1.9182128 -0.6958602 -0.22642015 -0.021057433 0.6668556 0.11131873 -0.36778283 -0.83913803 -1.0606115 1.8213037 3.0039365 1.211818 -0.7583092 1.201803 1.010745 0.80301344 0.30159456 1.3676912 -1.76107 -0.032198735 -0.11102086 -0.39130285 -1.016215 0.48963824 1.3389145 -0.6887046 0.915818 -0.2727332 0.012169012 1.152411 0.46563578 0.6162725 0.44125926 0.84854287 0.6750068
p 1.2084603 0.6410302 -0.68805265 -0.43080908 0.1629938 -1.025931 0.7813812 -1.5977918 -0.54358995 -0.0668715 0.88895786 -1.0940005 0.9995546 -0.7473696 -0.08739281 -0.23272875 -1.130721 0.5149281 -0.84655786 -0.4457766 1.9435518 -0.6768824 1.2594886 0.07683233 0.5145579 1.4377791 0.5353607 0.68408513 -1.1097133 0.06519897 -0.1303895 -2.2474334 0.55772495 -0.26045865 -0.72393394 1.2108984 -0.54907656 0.080636196 -0.226007 -0.1895181 0.56989133 -0.6649665 0.15557373 0.38752848 0.14825109 -0.7180281 1.4900259 -1.3734607 0.14167264 1.0823382 -1.0477415 1.6646031 1.046001 -0.32590523 -0.561785 -0.5381006 -0.71383464 0.32482362 -1.4450927 -0.094553865 -2.8300958 -0.26146704 0.97274184 1.8506951 -1.1118231 -0.13587618 1.183958 -0.5765135 -0.016666912 -1.9759839 -0.30355847 -1.1521246 0.36231273 1.9930623 -0.445892 -2.036143 -0.87007314 -0.084804535 -1.3401214 -2.1238441 -0.5542836 -0.65832585 -1.0317423 0.9217281 -0.34789056 0.34760356 0.60864085 2.0820549 -1.0027636 1.3648802 1.1538812 0.7589445 -1.468365 0.65959704 -0.9039649 0.96471846 -0.06475767 -0.69866675 0.4660414 0.86780834
r -0.507842 -1.5077858 0.56636256 0.1492758 1.1942189 -0.18293643 -2.4320319 -0.08534081 -0.21520871 -1.2822611 1.4252521 -0.0831206 -1.2090626 -0.8329833 -1.0581788 -0.13579768 -1.455591 -0.9856259 -0.885469 0.69624746 0.09134843 -0.7852112 -1.0327257 0.4357172 0.46054843 -0.41733667 -0.11185856 1.0614744 0.0790946 -0.34519678 -0.4175543 -0.274426 1.2218881 -1.2503537 -0.5739229 1.1635123 -0.4755783 0.23461202 0.32865083 0.26858553 -1.2927998 1.717654 0.46306387 -0.20565434 -0.8875923 1.0186131 -0.03853578 -1.1109663 -0.16775429 1.0081495 -0.2572884 -0.11799959 0.7440579 -1.3234622 -1.0821979 0.8717192 -0.22470799 -1.1472089 -0.66825646 0.41629475 -0.6306306 0.45313123 0.7231505 1.4995123 0.046935007 0.5459479 0.8102931 -0.9389631 0.9643535 0.66100466 -1.0234787 -0.7501966 -0.200244 -0.0638255 0.94970196 -0.26859558 0.79740506 -1.6470484 -0.06937047 -0.3641685 -0.46639675 -1.9951205 0.7761997 1.1065444 -0.95577246 -0.4237634 -0.97459394 2.4009278 -1.1029563 1.447992 1.2607292 -0.00911334 -2.2129328 -1.2888037 -1.5856034 1.0886229 -0.35147384 0.51835257 1.5357337 -0.88750505
d -0.41663483 -1.4936149 0.634497 -0.79006064 1.1016128 -0.4453535 -0.49787128 1.9514452 -1.0105829 0.36786216 -0.23934038 -0.21955962 1.9395648 0.4759217 0.032788265 -0.49187213 0.09258817 1.4620558 1.8254002 -0.3387692 0.02299894 0.13746259 -0.10343618 -0.09777256 0.6275172 0.11829524 -0.3279644 0.7951019 -2.310479 -0.54861426 -0.688746 -0.6071711 -0.51894736 0.7164124 0.6790895 -0.181926 -0.030254466 0.6568527 0.8509402 -0.25486767 0.6160316 -0.4187029 -0.40701038 0.26697466 -0.76998883 0.79496455 0.111169375 -1.1259744 -1.4490354 0.10006334 0.44695732 0.42410222 -0.22448955 -1.0808685 -0.81218696 0.41931793 -0.6689266 -0.36084518 -0.67626464 -0.92202395 -0.2911128 -0.098496355 -1.5276346 0.9940196 -0.3695038 0.28225398 -1.202704 0.124373905 -0.46514106 -0.013863562 -0.28193164 -1.1291406 1.1537431 -0.24249996 0.5089474 1.5041206 0.29455242 -0.13855807 1.1326336 -0.13796188 -0.17168064 0.83540285 0.9540832 -0.18521483 -0.5351672 -0.30100843 0.42096594 -0.27816013 -0.63629 1.549685 0.73574036 0.21337223 0.43049562 -0.031495854 -0.19929403 0.16140863 0.7772339 0.21362053 0.9872937 -0.2956303
& 1.3104076 -0.98134136 -0.20997299 -0.17224282 1.0521321 0.06794772 -1.1096569 0.6608901 -2.3822494 1.4086938 1.4477395 -0.519855 -1.6916238 -1.7370288 0.39307845 0.7314443 0.16434103 -0.11206575 0.24074985 1.2711667 0.4250325 0.5907764 0.11258534 1.8408222 0.4241646 -3.186299 0.57527816 1.1489 -1.6905068 0.7241138 -0.7870237 0.18452443 0.79954773 0.602422 0.28506655 1.9805444 0.8575105 -0.48409677 0.5270869 0.1760831 -1.3003109 -0.008191894 2.8292606 1.4326859 -0.26654944 0.63940525 -1.0140841 -0.0072505274 -1.6926464 -0.075344115 0.7076476 -0.20030871 -0.6308453 0.61411965 1.383738 -1.0468383 1.2842729 0.31931058 -0.6994304 0.16877109 0.75877315 -1.8171462 0.9780666 1.1269372 0.2405093 -0.15487044 0.7309033 1.8655994 0.3934643 -0.13233557 0.867237 -0.896673 0.7184032 1.4996085 0.35545775 4.5949006 4.7276278 0.71425724 3.8888607 1.3045365 0.43630973 -0.23392236 0.7507762 -0.5689464 -0.8316216 -1.4258484 -0.8321626 -1.1444854 -1.4209906 3.8584898 -0.21870288 1.1386294 1.0792542 -2.4106414 2.3451219 2.5470483 1.4694246 0.31389242 1.0694759 -0.43054882
4 -1.3553927 2.4946828 -0.52749974 -1.9913095 -0.21797484 -0.5427519 -1.2295605 1.0464792 -0.7153806 -0.06983276 0.271474 1.1877779 0.17620076 0.20529549 -0.3668232 0.65863824 0.1718858 0.73022807 -1.8097159 1.0133494 -0.567859 1.9591162 -1.7395871 -0.3878201 -0.6311256 -1.1112081 0.3948337 -0.4313052 -1.2903826 -0.009020264 0.084752634 -0.052177414 1.10736 1.0600008 -0.36626792 -0.029702196 -0.5451812 -0.11095532 1.0669652 -1.0933242 0.22940515 -0.5180193 0.4110604 -0.2868897 -0.46328378 0.6872187 0.5528627 1.2714217 0.5654559 0.16053477 1.5110806 -0.012804482 1.6491303 -1.8307946 -0.059026152 -0.23261493 0.42045385 1.4621707 0.7780543 -0.41385844 1.3046709 -1.0967395 0.38241005 -1.0596268 0.68312985 1.1331866 -0.44275633 0.663895 0.9265685 1.1563776 1.1671759 -0.8783258 -0.6629732 -1.2715986 0.040439673 2.362705 -0.19023949 -0.1700518 1.922766 1.2889533 -0.054947536 0.44001186 -0.64225864 -1.8959739 0.008838569 0.2324333 1.1133412 -2.3165202 0.2066478 1.3027865 -0.88578016 0.82660306 0.2965598 -0.12067478 2.1325066 0.9868647 1.1253092 -0.7526688 1.1800025 2.315968
l -1.185596 -0.43730325 1.9214797 -0.019994194 -1.0224934 -1.9239777 -1.3612843 0.4757754 -0.80814445 -2.5657485 0.6332513 0.30382332 0.44850203 0.66311926 -0.17870724 0.5323716 1.0501637 -1.529597 -0.6314414 -0.27342042 0.38950166 0.23493904 -1.0533473 0.6484591 0.59525687 -0.42774546 -0.015673213 -0.81434494 -0.8087536 0.68720514 -1.6117982 0.2087613 -0.8262656 -0.042861067 0.52506226 0.30985892 -1.3041321 0.56065434 -1.4271019 -0.81315774 -1.3865561 -1.1067101 -0.7844845 1.4665835 -1.6189792 0.5706113 1.8162118 0.39639 -0.948575 1.1390812 -2.391763 0.87999266 -1.7061503 -1.1034236 1.0113533 0.08990489 1.0823686 0.46631 -0.4827381 -2.563165 -1.4056007 1.2151501 0.42854664 2.2394707 -0.7820433 0.9333167 -0.7854544 1.3697711 -0.042112675 -1.4489367 -0.718906 0.17927799 1.3990154 -0.9626926 0.2685796 0.66863805 -0.5772697 -0.3908534 -0.6118522 -0.40679836 -1.6515856 -0.05935199 -0.08629224 -1.5178809 -2.888208 0.8194971 -1.5548927 0.56427747 -0.34335035 -1.5494477 0.5860972 1.0643665 -1.5772406 0.92873365 1.2989948 -0.3600044 -1.2295983 -0.2064043 -1.4615173 -0.13363361
3 -0.35055757 -0.091936916 -0.08083469 -0.27235588 -0.56092906 -0.4130598 -2.256201 1.3317696 -0.50543714 0.6688023 1.8185973 1.0249715 -0.49344075 -0.86016375 -0.5769729 0.9593919 0.30927745 -0.41517034 -1.8506186 1.6534258 -1.3283443 0.8265576 -2.516694 0.63558626 -0.28133395 -0.2623365 0.34732714 -0.5289711 -1.1975801 -0.3219511 -0.65547156 0.07366465 0.84465426 1.0097132 -0.35701945 0.4931875 -0.61129075 -0.70689696 0.9225179 -0.65917104 -0.8781523 0.6612186 0.5791189 -0.08241649 -0.7924061 1.2005374 -1.1070362 1.7167954 0.5711253 0.088460594 1.0247458 -0.42903084 0.7961986 -1.3663076 -0.23272638 0.39627773 1.0270389 0.20605762 1.1198729 -0.5573948 1.6801755 -1.1394749 -0.12593745 -0.8433165 -0.05863484 1.0584571 -0.9077586 -0.23528425 0.766068 1.2497898 1.1023518 0.08657465 -0.667923 -0.56659186 0.5438767 2.821693 -0.34031823 -0.8026026 0.77649325 1.0465767 0.7540013 0.15746957 -0.4091436 -1.2949815 0.1784491 -0.27168524 -0.7102555 -1.8789524 0.5248877 1.1718292 -0.25828412 0.028225936 1.4629924 -0.21274723 0.6266622 0.81685716 0.96439904 0.6107794 1.6604451 0.8352442
m -2.071933 -2.4297385 0.20495899 -0.3570812 1.2368801 1.1487393 -1.3258008 -1.0540208 1.0181265 -1.3598281 1.1139543 -1.5536025 0.73126733 1.4170921 0.4595389 0.044224247 0.9884928 0.041783392 1.3135545 0.092091724 0.2193171 -0.8721057 1.4733853 -0.7176468 -0.28012908 -1.2796583 1.680138 -0.0049681105 -0.6731204 0.90378296 -0.9652898 -0.3131534 -1.0954157 -0.7373474 -0.13883041 0.6071009 -1.0357096 -0.06722887 0.6840103 -0.22669445 0.018657919 0.7861131 -0.32176298 1.4117652 -0.7073866 -1.0695245 0.6489603 0.8530865 -0.0641445 -0.026729679 -1.222522 0.31849805 -1.9043751 -0.56225604 0.64765054 -0.5190567 -0.97393787 1.1614552 0.008801999 -0.7926021 -1.9350339 0.55998945 -1.0361946 1.8190448 0.016888319 -0.7624156 1.3511581 -0.27023762 0.2160934 0.14108826 -0.65113014 1.9558449 0.31295872 -0.1761626 0.4745935 0.7141205 -1.2769266 -1.1250073 0.14594904 0.35171464 -1.4527017 -0.29064688 1.0443691 0.41921842 -1.3162775 0.74787474 -0.42135656 1.8019047 -2.8035476 -0.3247736 0.04636977 0.72271127 -0.61041003 0.7508749 -0.4433802 -0.46614447 -1.588807 -0.38570207 -0.51025873 -0.45972693
_ -0.16896799 -2.1466706 0.9610177 1.7545029 0.64282745 -3.0852513 -0.76670456 1.4023169 -2.0792205 -0.60154545 2.4244199 1.8016403 0.8536645 -1.9413075 -1.2857823 0.83571154 -2.2134464 -0.24398069 -0.8623961 1.2111814 -0.29301584 0.791039 -0.090876736 -0.15292521 -0.026267212 0.17408715 0.36530137 1.9551543 -5.1274834 -1.3664607 -2.147982 -1.5209445 2.1198475 0.30283493 -0.39600343 0.5482734 -1.0068597 -1.0113442 0.6368792 -0.6430125 -1.4924203 -1.1866446 0.059449874 2.0202756 -1.3930329 -0.5173364 1.0146056 0.79014575 -1.6319851 0.102349825 -0.20069782 1.3817333 0.24836236 -0.066569015 -0.98680544 -0.3369311 -1.1648921 -1.2307327 0.28539428 -1.4850501 1.3183122 0.74925697 0.6431825 1.8708091 -0.39259264 0.029667135 -0.5556685 -0.11310466 -1.1048365 0.28635567 -0.6923888 -0.6399883 -0.9189012 0.90001893 -0.69401807 -0.62614614 3.016455 -0.35500747 1.4866297 0.39402422 1.33791 -0.51472867 0.40905496 -0.82465565 -0.5530157 -0.5978669 0.06949509 0.20884508 -1.0467637 2.9191663 0.0459207 1.3576877 -0.8405576 -1.068947 -0.72927946 0.08085128 0.7275538 1.0475416 -0.20201845 0.92330825
g 0.5345882 -2.1483424 0.6770144 -1.6650325 -0.08071825 -0.9769962 -0.808908 -0.49848026 0.44941223 0.7818087 0.30983177 0.038257793 0.4170049 0.21458352 -0.64007825 1.2917114 -1.5224925 -0.15325686 0.39124635 1.475716 -1.0560884 0.7916421 -1.1136962 2.515347 -0.37079322 -0.3817991 0.40307003 -0.50475866 -1.3495911 0.26848495 -0.28848386 0.7193583 0.167437 0.7173664 0.27722192 0.6390319 -0.5052341 1.4394405 -0.07358072 0.70762664 0.012350863 1.2401932 -1.0227199 -0.3225864 -1.4030507 0.7479755 0.79729 0.52112573 0.58183783 0.60178334 -1.3095872 0.87488586 0.004340891 -0.90918976 -2.4770074 1.991264 -1.3062253 0.05975532 -1.2373043 -0.07161245 -0.067659736 -0.45656797 0.6243513 -0.48783594 -0.02271334 1.9621298 1.0647892 0.13074577 0.038894664 -1.9443929 -1.4224837 0.12313034 -1.0140303 -0.3709215 -1.6628428 0.5296797 0.09191963 -1.491204 1.1570375 -0.2740185 0.5061768 -0.57611763 1.4094758 -1.115352 1.4343411 0.46382102 0.49218047 1.3851901 0.42363104 0.3792002 2.1251276 1.9888635 -0.44647932 0.31356773 0.09669286 0.013007144 0.35787132 -1.0229208 0.5210644 0.18769848
9 -0.28852803 1.5261207 -1.055289 -1.9911823 -0.57429767 -0.4775084 -1.9925431 0.794759 -1.1860899 -0.41193253 -0.29439512 -0.05074243 1.179163 0.75816834 -1.9135517 1.1956382 0.51407605 -0.28387627 -0.24340862 -0.2156581 -0.7338937 -0.6498804 -1.5664217 -0.3163329 0.042783238 -0.21337718 -0.22881882 -2.067983 0.22841184 -1.2437828 -1.8203679 1.0959402 1.1813977 0.37283635 0.5048917 1.0164876 -0.05775369 0.5033458 -0.19435929 -0.4401687 0.8932515 -1.1091233 0.4570163 -0.6417881 -0.58564687 0.2261784 -0.2753978 -0.11287918 1.1314815 -0.9423933 0.21188739 0.053606298 -1.2634331 -0.0031722703 0.26890275 0.16263118 0.39579377 2.1150575 0.4482051 0.25626624 1.3315703 -0.35760725 -0.7741459 -1.439636 -0.9916841 1.7090619 -1.3460786 -0.63341826 0.03484115 0.2002477 0.9876321 0.74212635 -1.022362 -0.32190552 -0.731145 1.4900815 -0.0017836833 0.7814791 0.5946077 1.0992106 -0.1667741 0.31808898 0.48672593 -2.1126423 1.220891 0.20750086 -0.30153096 -1.3871439 -0.28591195 -0.37826294 -0.3243052 1.1239628 1.7628399 0.5579561 1.3864175 0.9666258 0.741188 -1.0271928 -0.13562536 2.4583693
8 -0.9130074 0.7731341 -0.83818716 -1.4596066 -0.4745765 0.24646153 -2.5029643 1.5375824 0.0201693 -0.3299305 1.1893237 -0.32574564 0.34792852 0.20315969 0.13368088 1.2762477 -0.098445415 -0.5165867 -0.5130118 0.13438308 -0.30442837 0.86819476 -1.5096682 -0.22445577 -0.78880334 -0.2585004 0.21328734 -1.6415108 -0.9689102 -0.5438094 -1.3051465 0.14922434 0.8946957 0.84811616 0.32556725 1.1657741 0.28263932 -0.44338372 1.4239124 -0.999195 0.28456378 -0.64684737 0.6474278 -1.0829191 -0.21341346 0.65645593 -1.2631863 0.9157027 0.98460776 -0.3021364 0.5379468 -0.3858891 -0.327207 -0.4247128 -0.08526664 0.7680522 0.6513751 2.373691 0.7677085 -0.29984504 1.7649018 -0.6001714 -1.1490116 -1.9718698 0.6025727 1.1116709 -1.8569083 0.7599909 0.6377898 0.91021466 0.86732703 1.4838597 -1.2443736 -0.7353089 0.31545728 2.9375014 -0.61674184 -0.79506135 0.8919908 1.1365665 0.32530487 0.9418966 -0.34056088 -1.2154505 0.33407328 -0.539902 0.0066911303 -2.1593208 0.13554257 1.5833654 -1.1359373 0.7975272 2.1644788 0.46843052 1.5218868 1.1320345 1.159661 -1.1359249 0.7386067 1.109983
7 -1.4618577 1.1739727 -0.29184562 -1.5770305 0.08002842 0.31062534 -3.251241 0.5667472 -0.17146377 0.9550782 0.20196678 0.7366054 -0.24229817 1.4685751 -0.24839737 1.5581335 -0.96606624 -0.957197 -0.20165268 -0.5960937 -0.91261977 0.5949521 -0.9819696 -0.9620258 -0.2706746 0.0028213835 0.26751918 -0.5963986 -1.0249977 -1.3188293 -0.8588621 0.012613528 0.48675618 1.4190077 -0.029500762 0.068656206 -0.43400267 -0.22015847 0.27906364 -0.23222253 0.37470323 -0.3792882 -0.3663 -0.96564835 0.158419 1.0669374 0.14562248 -1.0089498 -0.089589514 -0.81965685 1.2422314 -0.26039925 -0.7566105 -0.62063175 0.01815592 0.40863058 -0.027022704 1.6804149 0.9248405 0.60945886 1.973672 -0.6648826 -0.6847812 -1.2180614 -0.063405246 0.4991906 -1.1213138 0.5004851 1.125563 0.964619 0.9405296 1.1846372 -0.45790422 0.29729283 -0.27354681 2.1438215 0.24431394 -0.9377743 1.4802172 0.60212266 0.07467092 0.66626525 0.87461734 -1.8848416 0.76203376 0.16613373 1.2158881 -2.1354306 -0.19076295 1.1817417 -0.54788053 0.20660894 1.6325535 0.35904825 1.2725718 1.1679934 1.7590365 -0.34920314 0.2053795 1.3060436
u -1.8191127 0.39115858 0.46003145 2.2795014 -0.21784097 -2.4052002 -0.39087346 -0.98306394 0.69447476 0.32395068 -0.24874768 3.8117971 -0.06159636 1.8706883 1.4956727 1.9368021 -1.0168505 -1.4468399 -0.47836685 -0.28796566 0.06289372 -1.3952075 0.6144368 -1.6299074 -1.7035472 -0.021631338 0.7852821 0.44691768 -3.1704512 1.83153 -1.3369024 -1.0410064 -1.673992 1.2326015 -0.60359657 -0.6739687 -1.8578457 -0.17533636 -0.44885767 0.45445648 0.0153356055 -0.80782664 -0.39246732 1.3521188 -0.80581677 -1.1160746 1.3339137 0.92849654 -1.022629 0.06778945 -1.1368675 1.3247375 -0.23239583 -0.37033725 -0.24613741 1.5524833 -0.6523181 -0.20628835 0.46514505 -0.40897894 0.80010515 0.01797829 0.4205247 3.0395734 0.6636341 1.6316124 -1.4398105 -0.22721078 -1.4455584 0.5180804 -0.9610258 1.2557752 -0.38471583 -1.2903669 1.067268 0.88877034 1.253939 0.13526167 1.003571 0.30117616 -0.44235376 0.06754555 0.7778537 -2.1356897 -0.91436434 0.37340984 -0.22103097 1.7240058 0.85821676 -0.54019916 -1.0527091 -1.4565109 -1.455525 1.1557482 1.0596838 -1.3121917 -0.6905841 0.3095569 -1.4187356 -0.5337116
- -1.5878091 0.7769508 -0.5694778 -2.0454164 0.24459839 1.5952301 -2.742294 -1.2831761 0.18335645 3.023601 0.20945284 -2.4621358 0.3940797 -0.47781205 -2.0110044 -0.2479011 -0.13175884 1.7049518 0.5141194 1.0611951 0.92719525 2.85073 -1.9676664 -0.7364359 1.2138076 0.09634196 0.57532907 -0.8882438 -0.5594347 0.56565386 1.5252525 -2.5602686 1.2275599 1.5928959 0.6872653 0.9925499 -1.1886201 -2.3895879 -1.7990124 0.22973783 -1.5467523 0.0074198064 -1.3944194 0.4811418 0.27698174 -2.2059658 -1.369343 1.1619165 -0.43088308 -0.9306958 -1.1851053 0.28909433 0.81474787 -1.1166452 0.43691733 -0.2221221 0.03158218 0.9462593 1.3393154 -0.13568072 -0.5927523 -0.18227872 1.8865288 0.4620103 -0.18218204 0.68843085 -0.016378814 1.4246652 0.925302 0.4332471 0.10618187 0.67465776 -2.0160182 -0.29753697 2.59581 0.030142745 0.24220073 -0.92133844 -0.8623918 -0.4220132 -0.57324934 1.5396065 -1.111386 -2.3103058 1.4184748 0.92090005 0.10089856 -2.4363732 -0.23615524 -2.0973854 -0.6032366 2.4671788 2.053915 1.3749679 2.6651714 -1.3513427 1.4775188 -0.85737956 -0.36105776 2.735952
6 -1.9609569 1.6946139 -1.0049397 -1.3729547 -0.15712535 -0.46129414 -3.627435 1.0253769 -1.0383098 0.3415053 0.33369505 1.2014301 0.9184257 1.3960755 -0.96283746 1.5901524 -0.25625426 -0.45582235 -1.3570331 -0.06462689 0.32713082 0.2671408 -1.5198494 -0.85461307 -0.2929569 0.14746977 0.21127374 -0.6602626 -1.6906096 -1.0965393 0.35211447 -0.16716184 1.4532374 1.4866347 0.06287556 -0.39013404 -0.41060963 -0.6672561 0.53846186 -1.0378057 0.40988645 -1.4164817 0.71464664 -0.25387833 -0.3758306 0.2800577 0.025692146 -0.099425316 0.7231742 -0.6296922 0.7322132 0.3030706 -0.07885004 -1.0049869 -0.07143976 -0.040157706 0.18319522 1.356236 0.78713495 0.04576294 1.4215883 0.22381134 -0.5040952 -1.4028133 -0.5041258 0.889587 -0.86909413 -0.045860324 0.15521964 0.18359357 1.538386 1.2578579 -0.16778025 -0.04501161 -0.17195298 1.5744638 -0.018616425 0.40359035 0.67714036 0.5743627 0.7709408 0.7129566 -0.5870592 -2.9983807 -0.061701916 -0.12592234 0.15984182 -3.345911 -0.112928 0.37812147 -0.97626686 0.586416 1.3712653 0.8754947 1.7198516 1.378008 0.31584433 -0.58404183 0.82639074 0.95728856
f -1.3403794 1.4536088 1.8816037 1.9103543 -0.33781025 -1.5978725 -2.780487 0.6050696 -1.0819271 -0.077871084 0.30925024 0.6969727 2.0609822 -0.07622403 -0.60636556 3.1542828 -0.5916816 -1.4569893 -0.43086252 -0.10594133 1.1109726 -1.3376431 -1.3533564 -1.0505809 -0.43021998 0.09953637 -1.2177073 1.2114269 -3.0303888 -1.8331398 -1.9208611 -0.24626079 0.73336595 0.9464901 0.06193518 1.0638306 -2.4142132 0.5334649 0.65520346 -0.616712 0.5449163 -0.9003545 1.3750094 1.4189557 -1.3049749 1.2501868 0.9633113 -1.0311855 -1.0529783 0.09849403 1.0046426 0.105262734 -0.25752023 -0.72429013 -0.6731381 -1.317139 0.81186104 0.8898193 -0.18248592 -1.1079983 -0.16939235 0.117303565 -1.9485155 -0.011264258 -1.0810757 0.624774 -0.46278533 -1.4239734 -0.97192836 0.2873967 1.5633749 -0.475026 0.5743295 1.3991157 -1.7083765 1.0731976 1.0071131 -0.25977078 -0.35812676 1.5297025 0.41704246 -0.89066327 0.19584398 -1.3201089 0.5731856 -0.22326037 0.04233331 0.48845243 -1.5356424 1.9431663 -0.38742912 0.17247966 -0.48463213 0.5764921 0.09025516 0.07922834 -2.5910192 -0.7433599 -0.1342963 1.9906054
w -1.1099292 -0.80764836 1.5514477 1.2827327 0.100587815 1.1167766 1.7943869 -0.27411467 -0.15801394 -1.2783489 -1.2215223 -0.14331725 -0.18398552 0.34283045 0.17210656 -1.1469783 -1.4612877 1.0323849 2.244477 -2.1761596 -1.4237492 -0.8730753 3.6565146 1.1343441 0.86522275 -0.32524985 1.1054165 0.92547154 0.98657805 0.3065279 -0.62729996 0.19669311 -1.4385617 -1.047554 0.74526143 -0.33583286 0.057651453 0.38821846 -0.09578258 0.85242313 -0.26772743 0.903821 -1.5720704 0.008118872 -0.16447446 -1.1981069 0.45576778 0.36941385 -1.5555365 -0.13925248 1.8221005 -0.5736313 0.53632605 -0.48740476 -0.42521662 -0.3916771 -1.4521939 0.16908512 -0.2969807 -3.4291904 -2.066546 0.80590266 -0.50646216 2.4897933 -0.2989654 -1.8846606 0.15159282 0.465697 -2.7169974 0.7769483 0.1936051 -1.2794018 0.33154494 -0.82729614 -0.202586 -0.47126234 0.97673565 -0.99770087 0.67945224 -2.3890162 -0.011168673 -0.4306802 0.27920356 4.6165996 -0.49973205 -1.8530595 0.23864453 2.569937 -2.0551229 -0.970194 -0.79706746 0.22126846 2.2267222 0.23571742 -0.109708294 0.067951255 -0.5817401 3.2161763 0.26677677 -0.4171176
h -0.02509717 -0.24859072 1.5219857 0.940224 -0.27584863 -0.24007401 -0.84998804 -0.35907382 -1.0059831 0.017523587 0.23941022 1.8950275 -3.5739748 3.1102324 -0.27770516 -0.82881707 0.5189508 -0.58997095 0.84476316 -1.0175185 -0.5496415 1.6245252 -0.5341544 1.611906 -1.13191 -1.8509843 -1.4421731 -0.2592385 -1.7986649 -0.5862263 -1.3060799 0.27647492 1.1306231 -0.30602247 -0.48812103 0.086976595 -2.1568303 -1.8746355 -1.7787683 -0.089245066 -0.56533986 -0.12198594 1.3183903 -0.26833516 -0.95793486 -0.9236382 -0.14412965 0.94832206 0.76114655 2.20396 -0.66383195 -0.414664 -0.82587224 -2.7454886 -0.09980749 1.1051029 -0.79251397 -0.37269726 -0.53112155 -0.10573504 1.4528428 0.11506149 -0.10079527 -0.19904792 -1.0678235 2.5049362 2.2034798 0.7246501 -1.7208167 -1.371539 -3.0286708 -1.043605 -1.291015 -1.570383 -0.80390394 1.0873982 1.3558391 -0.42321366 0.3204544 -0.679721 0.09122822 -0.71677333 0.8397443 -0.8397717 -1.107784 1.528276 -0.5111291 -0.95560193 -0.49067986 0.35071218 1.0083623 0.62853765 -0.55212456 1.882217 -0.46784055 -0.7507477 0.20676003 1.6656309 -2.3591158 0.48548183
) 0.2849658 0.11003752 -2.0192373 0.23285858 -0.9292352 -0.41836706 -0.47893095 -0.14442022 -0.7375257 -1.0650755 0.93267727 -0.70683235 0.8329097 -1.5125748 -2.478816 -1.0010612 -0.7234905 -0.6478055 0.20032923 1.4665343 -2.2575684 -1.6352978 -0.048136212 1.1296365 1.8207401 1.1988214 0.0057918434 -0.16344868 -0.019065656 -0.4868152 -1.4636747 0.14566666 1.6745871 -0.69636947 -1.3762637 -0.15504748 1.7719966 -0.1414496 -0.9017255 -0.20016679 0.63834804 -1.2962265 1.3744408 0.9105592 -0.90859145 1.685661 0.7671642 -1.4385197 1.8121859 1.6850308 0.32627064 1.99322 1.5643109 0.22601451 2.088974 0.9246286 0.06775829 0.2836402 0.8296885 1.754579 2.049097 0.22508739 -0.6017947 0.25464517 -1.3786982 1.7671633 0.66031903 -0.5250779 -0.1692744 0.29127017 -1.5361848 -2.2089624 0.7309007 0.95815927 -0.13730715 -2.1211352 -1.2576109 1.5147089 -1.6753081 -0.44306287 0.88665164 -3.02522 2.103763 -0.9517096 1.6217512 0.27940974 0.08272636 1.4005601 -0.19411243 -0.70401245 0.4669202 -4.4040766 0.10385578 -1.7063041 -2.2374535 1.3478072 0.23236951 -0.74278754 -0.93042284 2.3473036
b -1.4197026 -0.7685136 -0.25886863 -0.7168447 -0.010958129 0.00610775 -1.9433521 1.9186795 1.6287955 -0.47232574 -0.19837694 2.1027086 1.5475018 1.3522701 -0.23907138 0.76862097 1.2424948 1.7255868 0.14613871 -0.90876126 -0.5906542 -0.061386164 0.5041004 -0.5010907 -1.9692549 -1.2773728 -0.9317855 -0.27935812 -0.3934205 0.5630558 -1.0175978 0.27762213 -0.060739484 1.5769359 -0.60310704 1.1000311 -0.69294953 1.8398212 -0.1114173 -1.732814 1.0943042 1.16172 0.1039595 0.26828378 -2.15741 0.41198188 1.6289486 0.09893939 -0.8704448 -0.68619174 1.4758847 0.47116905 -0.5620004 -0.2070899 -1.0885345 -0.06669385 -0.80945426 -0.5195715 -0.11471751 0.016527565 0.9751012 -0.003643297 -1.8059117 -2.4435654 -0.26404798 0.47504944 -0.32467467 0.3939189 0.3262311 -1.1413054 2.523969 2.485864 0.53897333 -2.4832785 -1.612169 0.43207976 -3.9541793 -1.4042602 -0.27223656 2.5470548 0.049579293 0.8170619 0.30106217 -0.22807 0.59648556 2.0187492 -0.057194684 -2.668696 -0.2203192 0.2578509 -1.9186273 0.76259214 1.3978888 -1.0962768 0.12198379 -0.44685656 -0.7135016 0.825517 -0.8447024 -0.9466396
v 1.4466553 -3.2631783 2.0001001 -0.77652895 0.79052114 -0.46244237 -2.2113132 1.0240804 -1.2820859 -1.0065646 0.700936 -0.028695794 3.022893 0.94888186 2.512621 0.72644365 0.34565467 -0.23769394 -0.17866223 -0.42624715 2.7585166 1.5085303 -0.16546044 1.3347046 0.60099083 0.69641924 0.2777599 1.1527683 0.73643094 -1.1845127 2.1705422 2.112109 -1.7689036 -1.2405671 1.7271442 -2.9314907 0.27522644 -0.95714974 0.34959212 -0.44505137 -1.1335225 0.52222115 -2.2749283 -0.78340054 -1.9522564 0.48549145 2.0100965 -0.56607103 0.9324714 -0.58278626 -0.14018044 -3.152374 1.7098024 -1.984438 -2.9250546 1.2541069 1.1736401 -1.048902 1.6211593 -2.8454268 -0.42428613 1.1337769 3.5353308 3.3943367 0.29780266 -2.0345852 -3.9075425 1.4522493 -0.3227006 0.12215216 -0.9206063 2.502066 -0.017806476 -0.6964889 1.692707 2.3666015 1.102064 -1.0868044 1.4574139 1.8514702 0.8230446 -1.480108 -0.34346667 0.036696058 -3.6222134 -4.2017484 -4.5330157 1.9112397 2.7582576 -0.36135864 -0.5025102 1.3371534 0.5254506 1.9537424 0.5212947 -0.18813892 -1.0622659 -1.1189482 -0.2771242 -3.4285524
( 0.68316156 -2.6399343 0.3893549 1.3366393 2.0225408 -1.0081791 -0.25874478 2.1167865 -0.93138707 -0.48333955 -1.3988696 0.9025003 2.872205 -0.15777867 -3.7439678 -0.87055606 -0.28677392 0.80470854 1.7119726 1.389343 -1.3294855 -0.68894917 0.08543002 0.64518255 -0.6562458 -0.18546502 0.15327838 -0.2902737 0.8068491 0.5976993 -2.541351 1.157975 -0.6505232 -1.419593 -0.1213707 2.0570045 2.0898135 0.72073144 -0.881638 -0.16912512 0.92241406 -1.859456 1.0623659 1.1721501 -2.6384604 -0.005462139 -0.033402514 -1.1161975 0.02699299 0.25898996 0.13849214 -0.5775773 -0.47092217 1.519011 2.219387 1.7663594 -0.32787943 -0.3079211 1.3239415 -1.9488047 0.8084638 2.7928407 -0.6968332 2.0513973 -0.32479256 0.25502947 -0.29100507 0.47066626 -1.1300006 -0.7227227 -1.906197 1.2984889 1.216196 -0.75335306 -2.4672449 -0.88210505 0.076258816 -1.1666143 0.16804403 1.4470898 1.0337987 -2.6856964 0.97314817 -1.5250454 0.15818506 -0.19862203 -1.2804643 0.10717803 -0.21234113 -0.44616798 0.7925505 -1.9702207 0.34311226 -3.2512956 -1.3373716 1.5189372 1.3958074 -0.6604098 -0.7386699 -2.1238089
% 1.3967882 -3.5024831 -0.4145769 -1.3065361 0.7138212 0.03887227 0.9060639 0.8661791 -2.2095299 -0.22070922 -0.9035717 -0.21569549 0.85940295 0.022781221 -0.17567243 -0.7337815 3.0272439 1.3844694 0.17917751 0.12311792 -1.5309312 -2.2649257 0.44549 -0.7257879 0.48238185 1.812169 0.57770395 -1.1701467 0.9328078 -0.5360246 -2.1958828 0.49978897 -1.0301112 -0.036359962 -0.6587239 1.8207386 -1.0745701 0.93268543 -1.5170811 0.9046911 1.2908325 -1.1059422 -0.31756446 0.6524457 -0.76239645 0.39885002 1.149752 1.6713003 0.024831608 0.06153921 0.9716471 -0.17969336 -2.182929 1.4035696 0.29241127 -1.1927872 0.9167356 0.6459155 1.0759951 -0.31410575 -1.1914213 0.33334547 -1.1889331 0.9119632 0.011500632 -1.3308104 -2.4748478 -0.60486454 3.789428 -0.82938296 1.3701519 0.688332 -0.43096232 0.12194275 -2.0478873 -2.3592894 -3.0409746 -1.4588289 0.18836875 1.820228 0.12690651 -1.5087572 -0.6707819 1.4185845 1.2168617 0.2023207 -0.66566944 -0.45211318 2.2362983 2.1855016 -0.46717656 1.6853762 0.8985528 -2.278426 -0.67601305 -1.1039002 0.5270927 0.053122897 -0.14235719 1.0078238
? 2.4420855 -2.2525773 -0.004245118 -1.8906127 -0.029260103 -0.5592967 -1.0129366 1.6203171 -0.0792564 0.7983508 0.5062929 -1.1560373 1.4334297 -2.170775 1.1078515 -1.2047367 2.4002786 -0.1840057 2.1437228 0.17034912 -2.0353298 1.9481555 -0.41558242 1.1390401 1.0331631 -0.3320652 0.11124555 -0.9185504 0.3440611 0.1997691 -2.518232 0.91241556 -1.2060442 -2.73172 0.81463486 2.1865351 1.4833093 -0.76563203 1.1535318 1.6515379 -2.7449365 1.177891 0.72011197 -1.630668 2.2937331 0.5964344 -2.694486 0.18455386 0.57980776 -0.55329543 1.7897694 0.6109844 -0.4990093 2.8859668 4.1721497 -0.63079154 -2.3493648 -4.040066 -0.3230305 1.3853519 0.32062033 -2.347885 -0.62830794 0.822861 -1.2793247 -1.2192209 1.530071 -1.1211702 -0.24594392 -2.2378001 -1.9238136 -2.6264157 2.8954744 1.376392 -0.8893945 3.5687776 1.4619707 0.6984953 4.876916 -0.33575624 -0.4048007 0.12322217 2.5016577 -0.12748066 0.10792989 0.18694097 1.5644723 0.72566885 -1.8985839 1.141665 2.8725624 -0.45015183 0.47902894 -2.0990388 -1.2925628 1.8563675 2.255676 0.8994835 1.8403225 -0.13970916
' -0.21638787 1.3627803 0.688 1.2859474 -1.4330381 0.022443691 -0.02074229 -2.2628844 0.44032043 -0.2473768 -1.013735 -1.2121125 0.878091 -1.6037817 -0.5562624 -0.035217144 1.4512147 0.50263166 0.342556 0.2517285 1.2169057 -1.9851587 -1.6312916 -1.3258784 -2.6071548 0.24702312 0.08542735 -0.9224376 1.33629 0.013925383 0.43810886 -1.626326 -0.71534157 0.58875203 0.78864163 0.88895094 0.5571236 0.36093017 -0.9805061 1.3162249 1.1299396 -0.10156813 0.77791125 -0.6368475 0.79338443 -1.5221608 -2.5648913 -0.009966462 -0.99289095 2.2220318 -1.2711641 -0.75544924 1.3387473 2.199252 0.33297285 1.3194102 1.0642247 1.0171545 -0.46108076 -0.51452917 -0.21092214 1.7789279 0.6811808 -0.4713642 -1.5889336 0.12731266 0.74011385 -0.4188877 -1.5615976 -0.5611583 -0.18858962 1.141753 -0.013232629 1.2110269 -1.193993 -1.9361821 -0.22869009 0.024196241 -1.8908824 0.37293166 1.540948 0.0634312 -3.205918 0.5264628 2.1799006 0.42748466 -1.9014063 1.7922658 0.40215233 -2.551724 -0.8718798 -0.34623906 1.4337566 -0.15514638 -1.9518546 -0.24884716 -0.42387864 -0.0024557663 -0.6405568 2.4354823
  -0.04033745 -1.4109986 -0.041073408 -1.3818556 -1.0497029 -0.49770373 -0.013135775 1.477236 0.56219095 -1.9758321 1.0092909 0.7327082 2.1223254 0.30932814 -0.46099663 -2.0280035 1.2359924 -1.9288707 1.4097149 -0.18805571 -0.13048883 3.5561275 0.95648575 -0.8595528 -0.33413434 -0.7871704 0.94372183 -0.6622593 0.33048353 -1.1494101 -0.083429225 2.6985934 1.2423325 -3.003402 0.38802347 0.88270444 -0.6441197 -1.2170312 0.36338028 0.32145843 -0.41634703 -0.08043392 -0.108378045 -1.8459722 0.66130066 -0.3360896 0.5491205 -0.9457041 0.13171576 1.3156201 1.0785587 -2.1169224 2.0833228 -0.6893899 3.4620495 -0.6109924 -0.6266237 1.0249625 3.3150194 0.17788936 0.43323937 0.29918838 1.1895618 0.78941864 -2.4060643 1.4679103 1.5099361 0.6949707 -0.4130249 1.2346525 -2.560123 -0.2627622 -1.2050343 -0.14323713 -1.8509766 -1.5667984 1.1367816 0.3938269 0.047406353 1.3926115 1.1100949 -0.5831057 -1.0273222 -3.5491 -0.41720727 -0.4032879 -0.9956688 0.51138294 -1.4513221 -3.1891344 0.47412527 -3.3750749 0.8971071 0.47430176 -1.0572726 -0.5687366 0.2919848 -1.0493083 -1.3357935 2.0556576
y 1.0649813 -1.9971205 1.9421304 0.8448386 -0.60570395 0.8752676 1.4428581 0.9514921 1.5537587 -1.1498177 0.23680486 -0.9807211 1.4730814 -0.021241449 0.2929902 -1.0002719 2.2386312 2.4982166 2.2897632 -0.24099906 0.8658802 -0.34545916 2.2578783 0.6424482 -0.48459157 -0.37247273 -0.6874563 0.6104991 0.27183828 0.22829257 -0.94063026 -0.81731683 -0.71501917 -1.5778989 0.12629345 0.35111374 -0.7216647 0.8365565 -0.5620528 -1.3480723 -0.0045012874 -0.52601653 1.051891 0.49993673 -1.0111208 -0.4822425 -0.73223656 -0.35363072 -1.0550432 -0.6091976 -0.00085171766 -1.4072821 -1.5416503 0.70837516 1.4475039 -0.17052369 -0.7153994 1.1949075 -0.075818054 -2.4912474 -1.9631834 -0.74794024 -1.7763855 -0.30791974 -1.2312486 -0.8992847 1.5287579 -0.2536333 -0.4495041 -1.1920184 -0.8172898 -0.46491313 0.88149136 0.4259156 -2.7982266 -0.50484234 -1.5512677 0.6287822 -0.6926624 -0.77113736 -0.5200626 1.0655639 -0.4144029 -0.75944304 -2.422856 -0.13885863 -0.35176837 1.9117129 -2.2530615 0.70538646 0.96791565 0.9453712 -0.107162975 -2.2169642 -1.3691808 -0.12318745 -0.28837144 0.14709222 0.4149359 -2.2554774
A 0.20486982 -4.4520535 0.9784575 -0.9864911 -0.19862314 0.49757102 0.023799274 1.2745897 -1.4864637 -0.71433824 1.4317926 0.83830005 -4.1627994 1.0783825 0.9701777 -1.1524287 -0.48956442 -1.4253036 -1.021798 0.55482733 -0.9621121 -0.46605065 0.7736313 -2.057159 -0.4528464 -0.8663912 -0.37137508 -1.2436854 -0.6005342 -2.3502605 1.5773008 0.6132838 1.2880386 -0.88831264 -0.540796 -0.38552725 -0.3062019 -0.66776234 0.098927066 0.1856813 0.66269714 -0.84571093 -0.095492594 -2.8323874 1.2059008 -0.6032972 -1.3927201 0.14700262 0.6485939 -0.35720274 -0.45337662 -2.3232179 -1.6149473 -0.08058433 0.53313696 -0.593932 0.72774696 3.108077 1.2480512 0.7872438 0.6772328 0.6540203 -1.3953024 -1.4180048 1.0023508 -0.511713 1.105089 -0.0071772286 2.3717284 1.3298686 -0.3528256 2.6442392 -0.48360923 1.0159442 -1.5314867 -0.4640613 0.9704194 2.3920002 -0.4218479 -2.418604 0.4483001 0.65394646 0.99236864 -2.8348389 0.98131996 -1.1892809 1.1617575 -2.4741368 0.38180065 -1.0718472 -1.7794595 0.11831728 1.8683615 0.28133398 0.11488472 -0.8856327 1.1955651 -1.316109 -0.84403217 1.120829
F -0.5365818 0.29593915 0.64533603 -0.29595232 0.4533619 -0.8086592 1.7680994 0.95564955 -2.047805 0.07703 -0.5807847 1.0249327 -0.66797805 0.24231772 -0.5042401 -0.9035883 1.8777913 0.8998121 0.21286033 0.79377234 0.36027703 0.13954146 -1.1688805 -1.9998499 -0.43934357 -0.45744485 0.99521995 -0.7452532 -0.86575174 -1.1524147 -0.7365662 -1.0641092 -0.07722756 -1.4735616 -0.1795552 1.9633806 -0.6223095 -0.23840427 1.2237471 1.1296797 1.7683554 0.04546086 0.7744829 -1.9308693 1.2528467 -1.4888111 -1.6535621 -0.16746865 -0.14882566 -0.41479492 0.44093567 -0.69434094 -1.115752 0.7717469 0.7337162 -2.0194583 0.58110785 2.4971626 1.1715946 1.2824768 -0.6920416 1.8977251 -1.3103261 0.4706787 -0.2729877 -1.178053 0.43973666 -1.5551616 2.9404914 2.080384 1.9639428 0.45292374 0.21431786 -0.13836882 -0.006930121 -0.26417053 0.7143284 0.663896 1.1458956 1.2119431 0.08140406 -0.551981 -0.946295 -0.4895963 2.0770211 0.20060472 0.13946563 -0.48257357 0.037808124 -0.6861812 -0.71033055 1.2853333 1.0707047 0.41876304 0.23543604 -1.603317 -0.07913684 -0.64695334 0.4686105 1.6367639
+ -1.1886158 3.3289266 1.8712964 3.513521 -0.05274039 -0.9893626 -0.8094028 -0.32110465 0.9909502 1.4138495 0.8648362 1.0179944 -0.9042848 -1.7510232 -0.5015582 0.43274432 1.9718535 -1.7720307 1.0752456 2.490657 0.22124551 -0.13867734 -1.7633259 0.061698128 -0.8151516 -2.222642 -0.2630941 1.6968751 -1.8206165 0.99478984 3.3200114 0.35185498 1.0543569 -0.7789837 -0.06859358 0.93975186 1.4687132 -0.41824242 0.32649082 1.145713 -1.6324741 0.8483603 4.4767833 0.588474 -0.8526623 3.0991485 -2.3635266 -2.1487858 -0.9490214 2.163918 -0.9465446 -1.0512881 0.38802087 0.0832735 1.8658932 0.21001948 2.9215095 -1.6149716 -0.6099147 2.8561542 1.2333317 0.8506398 0.25757968 -1.8817967 -1.2079592 1.0281423 0.668857 1.765693 -0.16339122 0.36222968 1.2597563 -1.0980201 1.9729674 0.6333989 2.0819411 0.3818196 0.75569427 0.13194838 1.635908 2.3502192 0.41264805 -0.2383717 1.167954 -1.7055919 1.1441852 0.923263 -1.8119397 0.40514427 0.12364608 0.28834632 0.39576176 -3.742856 -0.49917814 0.9775577 -0.7390854 0.47439182 -2.2714238 -0.35057282 -1.2064929 -0.9808197
B 0.3830776 -0.8153238 0.12994064 -1.6777955 -0.08459911 0.32284674 -0.6934275 -1.4766885 -1.1437836 1.0149108 1.2175852 0.97500134 -1.1462672 1.0318813 0.1796631 -0.25501359 -0.33132434 -0.27644286 -1.8320396 0.95350033 1.2485243 -0.6808022 0.3370929 -1.5143453 0.26645637 0.14793211 0.6152079 -1.2566214 0.31677368 -1.200967 1.9573252 -1.3282442 1.2958041 -1.5111178 -0.3948729 -1.4464093 0.48902965 -0.7471234 0.072915345 -0.29236034 1.3063835 -0.8860277 1.359345 -3.179581 2.5146804 -0.7389177 -1.2920938 -0.33784774 1.7744216 -0.7447741 -0.3289879 -2.672913 -0.5113897 0.43817064 -0.90210897 -1.1943983 2.6032002 2.2888699 0.64358294 2.0475101 -0.7156302 1.0542428 -0.02080868 -0.6443432 0.9303069 -1.2341826 0.06792699 -1.0559138 1.7469718 2.218054 0.8652332 2.2665746 0.2783188 1.0331053 0.21849613 0.7818813 0.95465356 1.5298097 -0.41100493 -0.1506193 0.1964122 0.23416673 -1.0465862 -0.26823306 -0.150145 -0.49811268 0.20062995 -2.7465534 1.0309271 -1.1289922 -1.1234858 0.6122367 0.58237576 2.7363017 0.267693 -1.3570864 1.5202793 -1.4948831 -0.9227374 0.36465394
D -0.16102652 0.6996092 -1.9618368 -1.8345243 -1.1846857 0.32042772 -0.58661824 -2.2201426 -0.7446175 -0.43180457 1.70597 -3.033502 -1.1030223 -2.079653 1.3733919 0.7775371 2.1096396 0.17269698 -0.28639275 0.8518428 0.40421006 1.3158774 0.5099587 -0.7727774 0.39082944 -0.042657755 1.4640896 -0.8724391 0.98216957 -0.1938521 0.8239547 0.34322757 -0.29509282 -1.4814388 -0.8365537 0.2970893 -1.1839237 -1.7122078 -0.0865449 -0.066420466 0.92103976 -0.15138559 -1.0718949 0.24946839 2.1120713 -0.45850778 0.3465508 -0.7260517 0.8771197 -0.5107227 1.1364385 -3.0179875 -1.2255046 -0.6404751 1.6354997 -1.3506267 2.087944 2.6167963 1.4184672 0.20520136 -0.26281428 -0.023156937 -0.40210795 -0.067069426 -0.49138853 -2.0265558 0.19121687 -0.9891057 2.3566973 2.4652486 -0.6260821 0.008077003 -0.59820837 -1.0397643 1.045005 0.87965435 1.0191866 0.42472592 -0.9907646 0.5788982 -0.8062884 -0.32960194 -3.458157 0.57198346 -1.8911681 -1.0762625 0.3437688 -1.4706217 1.2838694 0.23529842 -2.0933347 1.010603 -0.08320819 0.7410407 0.6836533 -1.4889873 2.1489718 -1.1429504 -0.089569874 3.105862
E -0.05792373 -0.93720275 -1.7855526 -0.20597549 -0.5019428 -0.90627164 0.20817599 -2.895289 0.8234145 0.73030865 1.7077166 1.7602752 -0.2783004 0.17924792 -0.8715688 0.69168246 -1.1561567 0.5608042 -0.9855786 1.8588259 -2.0781877 0.2680922 0.18302177 -1.5702254 -1.0633404 0.3693397 1.1047076 -2.5780842 -0.1309199 0.09602304 -1.0229421 -1.7022377 0.11262905 -1.2680309 -1.3967435 1.4223006 0.17539632 0.0062880097 -0.77237564 -0.5018754 -0.17687605 0.07806823 0.5678487 -0.9093579 0.58885384 -1.2548755 -1.6215307 0.24986143 1.5322951 -0.792333 -0.97580147 -1.482374 -1.1993089 0.70153856 0.8543502 0.679257 2.0239215 1.670528 0.27584052 0.62159747 0.5806699 0.21915285 -0.23524868 -0.43028584 0.98253095 -0.75672024 0.70969385 -0.94155216 1.4757345 2.4516397 -0.20693773 1.2863296 -0.8346681 -0.79717296 0.759296 -0.60589725 -0.3209099 2.375624 -0.11167458 0.7829309 0.0585295 1.1510315 -0.8821885 -1.2890359 0.36346632 0.97824425 1.1268395 -2.907438 0.028120205 -1.2350308 -1.9550579 -0.39338613 1.1885377 0.50873774 -0.4228845 -2.0916193 1.9997901 -0.35810226 -0.52852297 1.0436928
N -1.7003078 1.6511725 -0.694165 0.30659202 2.5107803 -2.8088923 1.6100205 1.0490265 -1.176317 0.6588808 0.5726452 0.1465849 -0.5555829 2.790714 -1.1675284 -1.1035285 -2.1046839 3.9496968 1.3221728 -0.31518668 2.683505 1.7760788 -2.6178858 -0.23049107 1.7116945 -0.09986732 -1.5420239 -1.1365824 0.026107986 -0.8876259 0.4347556 -2.771209 -1.1068776 0.9296383 2.304563 1.8709488 -0.8468714 0.5866735 3.0482395 -0.11198982 0.3809636 0.013715796 -3.728211 -5.404594 1.2504934 -2.9348376 -3.4033296 -4.536527 -0.08488552 1.7367095 -0.7872147 -0.26709637 1.6396377 -2.487175 -4.7456636 -0.18321186 -0.47944564 1.625802 -2.577743 3.3073366 -0.2440929 3.5835004 -0.3205704 2.2438407 0.95725065 -1.1462733 -0.09889021 -1.2162889 1.728194 3.3258927 -2.2109017 1.212663 -3.042026 1.0522764 0.35201514 -2.728367 3.7198951 3.4560432 -4.195551 -2.8604052 -0.32812527 -0.722466 -0.102034464 -0.4748354 0.68036926 1.6882802 5.4208913 -2.460276 -2.096615 2.8790576 0.334085 0.6062436 -1.7112162 3.4423974 0.7075088 -1.9489955 -1.1414152 -3.9771116 -1.320676 0.4391731
> 1.5670861 0.084200956 -0.27762797 1.3470321 -2.5673463 1.0248623 1.5410126 2.0217323 -0.575514 2.072091 -1.7559106 1.7508353 -1.269216 1.6914933 0.90181 -2.7381873 2.8141751 -0.94923335 -1.4421788 -0.35652548 -0.9067479 -0.59669816 1.4496416 -0.9121816 1.8149539 0.6219212 -1.117612 -1.3747966 -1.1940128 -2.111159 1.6841193 1.1551529 0.27496564 -5.1345425 -1.2867601 -0.95407957 0.12977172 -1.7023902 1.2592113 0.13856216 0.5786112 -3.1509135 5.5119267 1.1569054 0.9183459 0.9743814 -1.3699629 -0.1732552 1.5568842 1.5171461 0.7032364 1.6460881 1.4404695 1.5665269 -1.0956029 0.34216458 -1.1086838 2.1419513 0.959087 0.98544466 -0.46594307 0.51878387 0.63898957 0.7653986 0.8554738 0.6011467 -1.8882984 0.13507567 0.49455363 0.023223683 1.9138986 -0.6170281 -0.78648615 0.5325224 -1.4601033 -2.3430424 -0.7390435 0.53507984 0.11362424 -0.048405737 -0.75413024 0.43350533 -2.8680093 2.1272473 1.7150778 -2.3756628 -0.031905167 0.26453927 2.1080823 1.0530734 1.2791742 -0.7723959 -0.99434245 1.6800711 0.18926224 -3.0805829 -1.6876124 0.33304393 0.1428731 0.08368166
H 2.5331995 -1.2408203 -1.2945397 0.18606907 -2.960879 -2.851923 2.209281 -1.6708283 1.3388709 1.4205967 1.855682 2.934596 -2.0431635 -1.4528319 -0.9672594 -1.6114825 4.80855 4.067388 3.5317962 0.97705 -4.0199003 5.0690956 0.3277424 4.1221423 3.8815308 -0.7771072 1.1522793 -3.289954 2.4686117 -0.58790386 0.3595999 0.74384236 -0.83273757 -5.1147804 -0.15698807 0.5962609 -0.8000561 -1.7416523 -0.8756606 1.460141 -2.3756874 2.5466201 -2.9628859 -2.0814028 0.90061265 -2.8666112 -1.8377764 -1.5777242 -2.385452 -1.1080645 2.5765607 -0.18668918 0.01760916 0.5044199 0.5050322 2.9629457 -1.5615393 -2.6413374 1.8071669 0.85112536 -1.1658173 0.9414401 4.6219287 0.8202965 -3.346397 -3.6765218 3.1616027 0.8290861 3.2378783 2.436064 -1.5437179 -1.0016454 -3.201243 0.7348983 2.4123242 -2.427548 2.368853 0.7323443 1.079538 0.3145214 -2.358012 -0.6065961 -0.032217484 -2.0129895 -2.9210985 -0.24711785 2.997977 -2.2425816 -1.5940744 -2.4891646 -0.22337703 0.28857398 -0.8447252 -2.3094218 0.29557672 -2.3001955 3.0617762 0.9815865 -3.7991104 -1.1898558
R -0.26366624 2.9188352 -2.917773 -2.858204 -3.4631767 4.1166997 -0.49037963 0.6918125 1.7187111 -0.75655353 -2.2741387 -0.34095404 1.2515234 1.2741804 1.4813048 -1.1113651 0.12652412 2.1811953 1.6193929 -1.6707244 3.4426403 -0.8593936 1.2792326 -0.9135816 -0.756344 -0.71604615 2.060296 -1.4291886 1.1411566 0.33546007 0.06971203 -0.057095647 0.629346 -1.6993542 0.14524351 -0.7589313 0.6751373 0.3149137 -0.12182432 -0.13667566 -1.6015197 2.3015025 2.6351068 -0.16164194 -1.8572578 1.7533524 -0.20390828 -2.9521334 2.2357523 -0.25247926 -1.6881337 0.67697054 1.6204 2.5357437 0.48084003 0.026874872 2.472905 5.8345923 1.5527616 0.4463535 -0.63996863 -0.41643026 -0.5504903 0.5899871 -0.21097131 0.17406893 -0.45776135 1.2965212 -0.8164683 2.0048478 1.7718929 -1.1568999 0.10730495 0.51513326 1.0170879 -1.6892627 -3.1176395 -1.9994498 -1.5458938 0.8130606 -1.1558286 1.4351962 -3.0050628 0.9588178 1.1180747 -2.3087711 -2.2068257 3.8072836 0.118064046 -1.1015689 -1.1799871 -0.38493937 1.082683 2.0182183 0.38962457 -1.5008885 -2.3225293 -2.8967643 0.42686692 0.99987996
, 0.12455338 -1.4497622 -1.3416753 0.37095314 0.07719869 -1.4046998 -1.8937234 -0.69489217 1.7257006 0.7841123 -0.65896934 1.3755622 4.0265074 0.6118105 -2.2102916 2.572224 2.0294173 -1.1357911 -0.23103996 1.3651614 0.8964412 -1.0173898 -0.8001402 1.4378598 -1.2435156 -0.48221213 0.4066763 -0.65184915 1.9452248 1.7540272 -0.074547395 0.11326995 -0.80061436 0.48603812 -0.48125526 0.1045877 2.0503848 -1.0895193 -0.120915785 0.5705382 3.7932243 -3.9472551 1.4103619 0.07542649 -0.07944191 -0.010080542 1.7598366 0.6606543 2.6470685 1.6172233 0.06974855 0.9907398 1.1103458 -0.1927255 1.8291752 1.450911 -0.5053601 -0.29450732 2.0954108 0.1858644 1.3380904 0.74119157 0.9418925 -0.82934064 -0.71945834 -0.7186669 0.38839954 1.3902373 1.1326357 -1.7381357 0.28157553 2.202154 1.4013584 0.060159333 -1.8879234 0.64317995 -3.2423444 -0.2634978 -1.6521593 0.34253326 0.264806 -2.9833298 2.089048 -1.7248409 1.7863001 1.1251897 -1.1102725 -2.1202533 1.5468689 -1.1564834 -1.0769176 -3.333677 1.4719405 -1.6830329 0.4993665 0.8539017 -1.524119 -2.4839125 -3.2607203 -1.6329772
< 0.7930035 1.608749 -1.2131246 1.8273335 0.20267257 1.340715 2.5752857 2.7717364 -2.6916642 3.221224 -0.7633067 -0.34854397 -0.7103266 -0.3693993 -3.4209585 -0.77452546 3.872305 0.98310167 -0.38817647 1.466999 1.9176921 -4.630939 1.1679411 -1.8058431 2.1750038 0.3995565 -0.61446244 -0.5448129 -0.01989955 0.8283282 0.13903849 1.7761419 -1.1898198 -0.22651316 -2.0010731 -1.7179383 -2.791551 -1.3768431 2.16982 -0.38837576 1.4529102 -0.9055076 1.7181156 2.4817247 -0.828469 -0.7755757 0.66670525 0.9112633 -0.3490484 2.5533173 0.57775 -0.1298478 1.8511218 1.5373462 0.9356057 -0.06064977 0.7052409 0.8646894 3.1539457 -0.41724363 1.4921592 -0.28298995 -2.1073363 0.48768672 -0.5371852 1.5299284 -1.256609 1.8577431 -3.276978 -0.87237036 2.3997655 1.3765037 0.18053441 2.2279243 -1.1173953 0.87958455 -3.3603516 0.10317447 -4.52458 0.21318054 0.5476008 0.2354974 -3.075065 -0.8640518 0.73476213 -0.78210354 -0.7917482 0.34144777 0.66517085 0.607432 -0.26180348 -3.2669601 0.69374967 1.2567374 1.237743 1.2782948 -0.9268512 0.47533187 -1.316197 1.7737249
U 1.2970295 -1.8554469 1.341692 1.3104426 -1.6230284 -2.7440302 1.5939561 1.0954399 0.4252265 2.5865963 -0.2938388 1.8669379 2.022838 -0.41355395 1.9155397 0.6734024 -0.9485098 0.08099247 -1.5234048 1.0991313 2.7030334 0.5331757 3.5732 -1.267444 -0.0972518 1.1287304 1.2370636 0.5120129 -1.25184 0.21305361 1.4328234 0.300553 2.5212114 -0.11194254 -2.186825 -0.15997864 -0.20566644 0.54496086 -1.727677 0.5932693 -1.8845754 -0.6735494 -0.4894452 -1.4329681 1.68765 -0.36448663 -0.23131275 -0.26812205 -0.4995232 -2.896931 1.0845487 -1.5373806 0.14869595 3.7871222 -0.49538764 -2.4385238 -1.4502513 -3.4360313 1.222663 -0.24773443 -1.8811817 -0.7732527 -0.90851915 -0.77505463 -1.6354896 -0.7648199 1.6439149 -2.6184285 -1.3705844 -3.4793642 -1.1000682 -0.11181507 3.1455953 0.63647485 -2.4079866 -3.3974075 -0.045489755 -0.45174652 1.3564762 -0.35406008 3.062067 -0.12461992 -2.8837752 -1.9579253 -0.78632915 -1.0492878 -0.41000122 -0.58144397 1.9919695 -0.029781185 1.2531573 1.4330398 -0.6460059 -2.0917401 -0.20065093 1.4592837 1.8749354 -0.066183634 0.6821566 -2.230081
z 1.772551 2.2927957 -2.8303256 -3.5753555 -5.227938 1.8747276 0.028866326 -2.4740353 2.7246032 0.9285769 -0.01066544 -0.7979441 -2.9938638 -4.3077393 1.3574897 -1.3881209 5.430709 1.0936295 1.097628 2.4742618 -2.019179 1.1179712 1.4455653 1.2208259 1.669656 -0.33820993 1.4856129 -2.6192958 2.9107947 2.466261 3.757065 1.4274172 2.0322423 2.9670057 -0.50000376 0.2772624 -4.048283 0.70490384 -6.161877 1.4340196 0.7468607 2.1158228 -0.76655126 1.6726041 1.8824486 -2.1990285 2.0436738 3.3719387 -1.1800619 -1.1717592 1.583209 -2.1912293 -1.0350863 -1.1107305 2.1034 2.0293741 -1.5013528 -2.0215447 -2.4864671 -1.1803583 -2.3541317 -3.0982254 0.06387048 -3.4217868 -4.4124026 1.2434895 6.875621 -0.41223872 -0.24671961 -3.6625621 -1.8119444 -2.1878445 0.26792443 -3.1859486 1.3394932 -0.07043165 -1.7499917 1.9280173 -0.57864314 1.6095437 -0.6267409 0.31230754 -0.2894284 -1.7044648 -1.3954765 3.5877368 4.6482377 0.6081317 -0.38937953 -2.5210972 -4.710676 1.6964977 -2.6787186 -3.4842043 1.2067671 1.2110674 2.3989768 -3.816231 -3.8565257 2.5017135
S 0.47112733 1.0962371 -0.07328358 2.093748 -1.5562549 -1.441782 0.3046813 0.24350576 0.8465888 1.2704204 -0.14376251 1.113877 -1.451753 -1.3832868 -0.5591687 0.24908012 -1.1097714 0.7470623 -0.45695883 0.4076488 -2.6741347 -1.0265299 0.91041595 -0.50787246 0.7134605 1.3871785 -1.6622913 -1.6087711 -0.83342886 0.58866715 -0.2833513 -1.5801625 -0.9153672 -1.751056 -1.272094 1.2901009 -0.40271124 0.74915564 0.20142357 -2.2165165 1.4898738 -3.3966734 1.0199662 1.6140838 0.19218262 0.401406 -0.66011196 -0.5519756 -1.0903554 0.48967174 0.16177285 0.25469366 1.0682918 1.4114908 1.0931177 0.40248376 -0.07180931 1.6494291 0.35272667 -1.8932841 -0.23630637 -0.105622254 -2.2635825 0.47577727 1.3212657 0.1620406 -2.2898865 -1.0394347 -0.68466765 0.8219196 -0.119416066 0.060799606 -0.33675784 0.25176153 -3.1568654 -1.4882427 -1.5840871 0.6925525 -3.2849474 -1.6094873 -1.8882565 1.6911811 -2.424823 -0.345505 0.10796563 -0.8577124 3.3856375 -2.4380865 0.871687 0.84613323 0.03837446 -0.26346615 -1.3766825 -1.178938 -0.82642126 -2.2375236 1.7241846 -0.7280215 0.6189691 0.13204351
T 2.0147471 -2.7525723 -0.5732905 0.15985504 -3.0642185 0.16316198 1.2311959 -0.6428153 -0.71378404 -2.013829 0.42527723 -0.76131773 -0.23214397 0.5659161 4.5159163 -1.3846822 3.613367 -1.7908318 -0.37672696 -0.9663664 0.72925806 -2.603354 2.4518418 -1.1332921 0.065435655 0.6666764 1.0391843 -0.07828494 -1.6398497 -3.9391584 0.29821515 -1.2495317 0.19888185 -0.21758229 -2.8678803 2.0058575 1.5305244 1.1951762 0.1520812 1.1881715 2.564264 0.36201113 2.5355344 -0.0977687 0.82152396 1.1858048 0.7497179 0.44218892 0.37813035 0.6946782 -0.015865043 1.0240009 -1.5939702 -0.4031354 -2.2903252 -1.6767673 -0.49723512 1.2452866 -1.2673544 -0.6279354 -1.5788188 1.0988438 -0.7133547 -0.49828514 -1.0265524 -2.2306669 3.3658974 -0.3741787 2.8685975 -3.3967528 0.39299855 2.0729182 0.22994445 1.5925018 -2.3225145 -0.38874498 -0.5319491 2.44168 -0.28853658 0.6793291 0.97692573 -0.9327661 -0.768571 1.6728166 0.15660703 2.3162813 -0.8996161 -0.109719716 1.2291044 0.47772318 -0.4342734 1.7879537 -0.7638895 -0.72728443 -2.6031628 -0.41434553 -2.4650447 2.1037982 0.86913216 -0.041800484
I -0.81575304 -0.35170382 0.010991262 1.7711623 0.46268106 0.604465 -3.233825 -2.0192115 0.50834155 0.5747165 -0.009505336 -2.235126 0.022310989 0.9794296 2.221009 -0.7604585 0.2081362 0.9256721 -0.5211044 -0.91798365 -0.8468255 -0.44815615 1.1439002 -3.055506 -3.601157 -1.2120216 -0.017584642 -1.441006 0.17740785 -1.5246527 0.37084982 -0.64559096 1.0393515 -1.3878301 -2.296808 3.6565948 2.6020718 -0.20198129 0.500896 -0.39912593 0.17653249 -0.6237486 1.7608314 -0.52369446 1.0827901 -1.347054 -4.325828 2.1882634 1.7569904 -1.8135818 -0.22173329 -0.8223784 0.62251425 2.4310577 0.61969274 -2.0418062 -1.8594797 -0.539697 0.4396182 0.105606645 0.22063401 -1.5094906 -1.8251675 -2.6934226 1.191958 -1.0585057 1.6098402 -3.218006 -0.4961151 0.32432926 -1.6603451 2.6087267 -0.52917415 0.47058222 -0.02466324 -1.0067003 -0.38820764 0.8332138 0.9397924 0.5624725 -0.12726037 0.09817331 -0.66682494 0.2605388 1.2864096 -0.5580907 0.28547984 -2.278668 -0.056915216 -1.1261796 -0.7204255 2.4192493 -0.48911783 -1.1216135 -3.2088335 0.3221309 -0.48405603 -0.88969827 3.1243844 -0.037808314
k -0.047699552 0.9401576 -1.4846346 0.5156716 -0.7935997 0.29379308 -1.4779314 -0.9338484 0.61946994 -1.0431978 0.5803335 -1.9203749 -0.33116823 -0.41023353 1.5940434 1.3395983 -0.85263586 -0.37696728 -0.5870289 -0.61711806 1.826054 -0.66416353 0.29598615 0.022016978 -0.52734315 -0.5616006 -0.028337771 -0.20087524 -0.42955947 -0.22555527 -0.9615957 -1.0892837 0.6962956 0.59090894 -1.4692152 1.1366154 1.0198377 1.2106612 1.076754 -1.4061122 2.2597394 0.9522636 0.57846147 0.6784733 -0.60699093 -1.192319 0.32697082 -0.75421333 0.37122032 -0.30046108 -2.0018592 1.6765156 -0.1074013 0.5658906 -0.68385077 -1.3871644 -0.59157467 1.7292856 -0.54483086 0.29739583 0.49652788 0.34764302 -1.4894507 -1.1415266 0.36937886 0.5304911 2.3221471 -2.0374029 0.6674067 -0.26001704 -0.5128748 1.6752453 -0.50349957 0.4534285 -0.13075465 0.83379376 0.16535224 1.7250334 -1.0455136 0.46817583 0.034552336 -0.83250725 0.5866898 -0.74722856 0.5072545 0.30346078 -0.50070196 2.0092392 -1.0681896 -0.61254996 0.24229921 1.4576234 -0.82834876 -0.69926995 -1.2725044 0.86844665 -1.066443 -1.1744902 1.5676874 0.146388
O -0.31999707 4.645357 -0.07966549 1.3466393 -1.8555146 0.48085552 1.3882637 0.9874718 1.2904762 -0.19368705 -0.5441589 -0.84995013 -2.7578073 -0.40960667 0.63280416 0.6054283 3.274422 -0.7516034 -0.9150792 0.47520864 -1.4765133 -1.1709454 1.5527647 0.0755905 -2.3665917 -0.12212397 -2.479584 1.1688838 -0.9475231 1.2287389 4.6487284 3.4851766 0.53220975 -3.608177 -1.2836587 0.19066039 3.271861 -1.3114136 0.2532489 -0.2008466 0.93148696 -1.9220113 2.3228388 0.5213895 1.6997947 2.9697587 -1.3466948 -0.6359816 1.2123317 0.8194016 0.3941086 -2.0626335 0.3073175 0.51070863 0.32334912 1.0468594 2.580928 -0.7911673 0.41625318 0.5419465 -0.78372926 2.4107547 -1.4991494 -4.373863 0.39297542 2.374963 -0.583725 -1.2935866 -0.71802354 1.093944 -1.598213 -0.3178333 0.7333671 -0.81679195 -0.6689738 -0.78139865 1.3364303 -1.6535059 -2.074495 -1.3928907 0.8526267 0.79739016 -1.762392 -0.604474 0.6463544 0.58183503 0.08063887 -1.92841 3.588948 -2.5178106 -0.2876791 -1.3065426 -1.9967833 2.9940324 -2.577276 -2.028638 0.8948826 0.11174355 1.0255632 3.6450324
L 0.14414984 -0.99838936 0.17789297 1.496495 -2.8654616 -0.94790524 -1.8066828 -0.39128622 -0.5160865 -1.0246732 1.1337041 -1.333008 -0.15327658 -0.5340841 2.3950398 0.8010295 -1.4155756 -1.0224448 -1.0771644 -1.7872026 -1.5079002 -1.77707 2.7083406 -0.6375072 0.14935344 1.8195968 -0.0342523 -0.24914472 0.43682393 -2.0379138 -1.7539068 -0.10130685 0.5633014 -1.6391784 -1.7890607 2.392748 2.0079556 1.6978272 -0.7185725 -0.022423035 -1.5997772 0.14326091 -1.7277225 0.0068691433 0.17121951 1.4184134 -0.49828836 0.026776103 -1.159451 -2.7523675 2.2867527 0.461494 -0.16084675 2.4768054 -1.0371164 -2.4782057 0.54830575 -0.012220007 0.91087586 -1.2992924 -2.0458283 0.83959377 -0.83810365 0.72794884 0.17650159 -1.8662056 -0.7199184 -2.851428 0.1677993 0.8489431 -0.26031578 2.601166 -1.1372919 2.2386417 -2.2814972 -2.7419806 2.4827833 -0.86935866 -1.9491284 -1.2893671 0.21277684 -1.6070657 -1.3760276 1.7197483 -0.71204245 -1.0643169 0.61899674 -1.3678586 0.39536837 -1.7586147 -0.6609219 1.0837786 -0.5029629 -1.135007 -1.1196976 -0.5101282 0.19641905 1.835634 1.5706916 1.3843379
| 0.53094023 1.313382 1.7555677 1.9562159 -0.029212732 -1.6084417 0.3503362 -0.27537754 -0.3125598 -1.5587767 -0.14176755 -0.21113601 3.2028809 2.1337335 1.5682107 1.0781331 -0.030320236 -0.15355793 -1.5401595 -2.184845 0.4021585 2.3721354 0.2912019 -0.16060399 1.4879472 2.5973194 -4.1361217 -2.203565 2.8104255 -0.3799323 -1.3336341 -0.7291971 -0.4549625 -2.4405913 -0.85492647 -0.8401046 2.0932987 2.4063363 -1.1570507 -2.6151936 -0.41394225 -1.2062807 0.1427651 -2.0267682 -0.6387099 -0.8002031 -0.80153 -0.93473226 0.1075183 0.11620494 0.20235063 0.8448821 -2.1836753 1.1533154 -1.3350866 0.7169903 1.3892206 -2.2241354 -3.5678506 1.2796755 -1.6920546 3.5702586 -0.26467165 -2.4068108 1.6446922 0.28520817 -0.8283123 0.03579344 1.7628385 -2.217989 0.45736927 0.8615593 3.063219 -0.47599265 0.7997855 -0.9042083 -0.78323096 2.757633 3.3984926 0.2360014 1.2044212 -0.6452295 1.3295524 -0.27111873 -1.4852791 -0.5004879 1.5832464 -0.38976198 -0.3124746 0.6359595 0.11994773 -2.301645 0.11658556 -0.64381015 2.0205412 2.778839 1.4865465 1.6342818 -0.776568 -2.4698267
P -0.037352156 1.4978994 -2.1731808 -0.6036857 -0.807194 -0.0393333 1.2734984 -0.32342306 2.7023056 1.0583153 -1.182654 -1.1943154 -0.90690553 -4.0659814 -2.056799 0.2731328 0.67136294 -0.7304497 0.73244274 0.45149428 -1.6523066 -3.4591215 2.588744 -0.6120239 2.2005115 0.00057735265 1.3514599 -1.9039439 0.7898726 0.659851 3.4301853 0.49200013 0.64625865 -1.8178967 -1.5847863 0.92414427 0.96035284 0.83351237 4.472771 0.18421322 3.3232043 1.2322292 2.135357 -0.2698719 1.8053281 -0.67587364 -0.19041398 0.10956873 -0.6350758 2.160346 -0.5444266 0.19000831 1.378033 0.8099767 1.1366665 0.6208197 -2.0418649 0.6920709 0.9396964 -2.3927064 -0.6805799 -0.42703304 -3.6339757 -2.6265023 0.8951657 0.28551015 2.478873 -1.5358762 -0.28325593 -0.7891382 1.367457 -0.70441216 -1.296819 0.10891746 -2.2789457 0.5359356 -2.2897542 0.050069295 -1.3726251 -2.6902483 -0.07942952 2.7927117 -1.7811893 -0.33710068 2.3589907 -0.8639539 2.2969031 -0.22364734 -0.7506559 -0.494941 1.9158857 0.24911693 1.0243647 -0.76318777 -1.9738922 -0.11813846 0.66960186 1.1239821 4.41517 1.5077025
; 2.4968424 2.4942918 -1.7331202 1.3895003 -1.1291225 2.1741753 2.3196492 1.3141791 1.0428066 0.8445767 -1.733705 -1.2911612 -0.23601234 1.4689007 -2.0676389 -1.8441185 -0.03319866 -0.3758445 2.4760315 0.116065696 1.0982724 1.696576 0.8501737 0.023882417 0.4653832 2.9286447 -2.3678432 -2.030944 0.7918355 -1.5463616 -0.43421346 0.85365343 0.85354364 -4.8559504 -2.0352585 1.7509018 1.3320628 1.015826 0.5662715 -2.734649 1.518557 -0.99797434 5.2348404 0.6926767 -2.3505154 0.73862225 -1.2786714 -3.6485572 0.2728924 0.9494358 -2.0227125 -0.5465375 -1.2134473 0.37723434 3.507715 1.6295593 4.3509426 4.2451253 -0.17491655 -1.6200918 -2.6791775 5.3059525 -2.3435626 -2.1760924 1.4865067 2.392774 3.3973567 1.6759735 1.1672268 -2.0772688 -1.3207884 0.74002326 -0.7270205 -0.09265548 -0.91214395 -2.8375201 -1.1388421 0.8409472 -3.383215 -0.6652911 -1.4550227 -0.8894399 -0.40921533 -2.9093988 -0.7323894 -0.9487668 0.8490266 0.016383205 -0.9043659 -2.558872 1.6278259 -2.3371358 -1.9390471 -0.73430496 1.6185702 1.3654262 1.6986042 -2.92241 -1.273744 -0.9471721
: -1.865759 1.2209668 3.4944055 0.11011173 0.6319734 -2.101197 3.0382261 3.2535284 -0.38039166 0.022814352 -1.8339357 1.4087843 -3.3333304 0.18410781 1.2717872 -0.22150105 -0.7137844 -2.7836075 1.0992917 -0.19546305 1.780095 3.5415154 0.112431884 2.310032 1.7802886 -2.8874373 -0.9392302 0.52621955 -0.12128004 4.0211444 -0.14556615 0.48761964 2.666731 -1.9334513 -0.20662782 -0.21864925 1.7208966 2.9907198 0.27623433 0.44270205 2.0660133 -0.99269456 2.7608907 -2.366141 0.08050623 1.7248309 1.6674942 -0.38320398 -2.5306263 2.8348536 0.8496528 1.0097082 -0.54757273 0.6215456 1.5415848 -3.948891 1.705682 -0.6183208 0.07773216 3.1941082 -2.0314841 2.7625153 -2.7593665 -1.4028255 1.7781295 3.3621948 -0.6608512 -0.103178896 2.786403 -1.0439689 0.90939945 -2.3864427 1.0229448 -2.3107772 -3.5256786 -0.74270827 0.6285645 -3.61674 3.7424226 -0.5093743 -0.19437627 -2.3198137 2.327665 0.29830396 1.5384579 0.871011 -0.5047123 -0.8534133 0.831416 0.79109937 4.0120997 -0.5196842 0.88492626 0.22246234 2.6887066 -0.92551744 2.0855093 2.0174851 -1.5901805 1.5489433
V 3.1955423 -1.9487972 3.565761 2.3951132 1.3091843 -1.5295304 5.9777474 -1.2108188 0.37362382 -0.10033847 -0.8240636 2.0782366 -1.4985234 -0.07293706 1.3672568 -0.66002864 -4.490521 -0.42288524 1.6099753 0.94102085 -1.99596 -1.4112364 3.6223438 -0.079364814 -3.2409623 0.9623201 1.3325291 0.53566164 -0.671933 -0.14536248 1.0298043 0.55673784 0.14115855 1.7894979 0.64103675 0.8199554 1.1075152 1.7551975 -1.7707269 -0.4273115 1.712624 -0.6133397 0.7285981 -1.1277335 0.0018777734 -2.047345 1.0204614 -1.1108059 -1.3177619 -1.2605026 -1.9683611 -3.9921544 -0.49282983 0.577542 1.2527566 -0.8467084 0.34151468 1.1810571 0.46261397 -4.204427 1.5259652 -0.18523298 -1.091876 0.19809051 1.4017695 0.044465624 1.8503109 -1.8375854 -0.60916865 -0.4100328 -1.3798524 -0.39413217 1.9732972 -1.9236162 -2.0614443 -1.2971513 2.401153 2.0980606 0.51539505 0.03825302 2.0734131 -1.1123894 0.22061236 -2.3215036 -0.037991647 -1.7990919 -0.9208585 1.7743765 1.3757752 -2.7621675 0.11353173 2.304575 0.76588917 -1.9416845 -0.32380605 -1.4308997 1.7156208 -3.9699838 -1.9560533 -0.18411762
* 0.56356394 2.4977777 -0.99535805 1.1864724 -0.50293577 1.4305658 -0.30081245 -0.2783296 0.4477832 1.1440518 -0.3916193 -1.2241998 -0.9916082 -1.0847111 1.2714689 -0.13566165 0.455813 1.6747003 0.7738471 -0.94140565 0.33255336 -1.491721 0.9768997 -1.2255329 -2.694459 1.0204765 -0.41210854 1.464747 -2.167941 0.31915158 2.0459037 -0.40259796 1.2806945 -0.19079466 -1.4130957 -0.64596015 2.5130947 -1.5686417 -1.3015217 -0.07571762 -2.27103 -0.08143306 2.3073425 1.6508135 -2.092649 1.9068117 -1.2741091 -0.44741994 1.0597882 -0.08634988 -1.47771 -0.046917446 0.43464848 1.4736887 1.5933584 0.015255363 3.754484 -0.5042604 1.4193251 -0.06257044 1.1326127 -0.15381953 -0.72530735 -1.9667517 0.721435 1.0638961 -1.7166309 0.16925499 -0.7954779 -0.0024012383 -0.6456184 -0.9797668 -0.63827777 1.0141889 2.0102265 -2.4488444 -1.2716764 -1.9923862 -0.46744263 -1.5545454 0.4116144 1.2175057 0.14190581 -1.0242425 1.6958776 -0.98097134 -2.3514607 -0.503036 3.1208508 -0.46253318 -0.6998162 -0.23213582 1.4751222 1.9621955 -1.8843142 -1.1478168 1.3197497 0.710817 0.5013058 3.6316695
j 1.5968813 1.2677729 -0.9792425 0.8277579 -1.421825 -2.0926611 -0.2677983 -0.10106619 1.3548056 1.3311361 0.00022300308 1.2123073 2.1959293 -0.8881268 0.24555574 0.6513531 0.4816631 -0.26710305 -0.17917894 -1.2712482 1.537932 0.60006595 1.0978357 -0.30999973 0.95359373 1.4181093 0.24210565 -0.8339832 0.7759755 -1.130796 -0.3162413 -0.2861047 0.35402483 -0.19032449 -0.16742642 0.11094278 0.45311895 1.0036217 0.98038983 -1.0351663 1.1168408 0.0329879 0.793761 -1.0471816 0.7047176 -1.5296224 0.72854203 -1.767039 -1.1246965 -0.38304484 0.34908825 0.18256487 0.38860252 1.9783695 0.6306278 -1.6851355 0.41075417 -0.8843171 0.5215023 -0.46502653 -0.5906543 1.063877 -0.13866496 -0.74205947 -1.1234714 -1.6444813 1.4847533 -1.320651 0.8212897 -1.054194 1.0129627 1.4978312 -0.40932256 1.5837163 -1.44272 -1.4680299 0.017658623 1.3521869 -0.7021335 0.82912445 0.47567946 -0.66695803 0.16824758 -0.8936107 -0.06525854 -0.28230187 0.790651 -0.48845845 -0.95863134 -0.5982743 0.23759504 0.4270045 -0.03667228 -0.73895913 -0.44235876 0.34037203 0.02415225 -1.2271901 -1.4347283 -0.317859
X -0.99614495 2.3337903 -1.6309686 0.32839608 -3.9619865 0.576937 -2.341649 0.3006034 1.5704285 -0.100166954 -0.27621803 1.1776472 -1.4248068 0.01744403 1.6388063 2.0253732 3.3874235 -0.4245391 -1.1130072 -2.0184526 -1.6369463 -4.0501814 2.2376182 0.4721297 0.5138188 1.135342 0.38473678 -1.3849329 0.12162522 -0.21069178 -0.6547373 1.7788583 0.34073478 0.34500757 -1.0509354 -2.5412865 -0.031797357 1.2465248 0.11816204 -0.16219515 1.3923663 -1.1714288 -0.047203578 -0.56726336 2.706173 0.48602858 -0.7493514 0.56036586 -0.8165116 -1.1730326 0.5665032 0.8729119 -2.388812 3.4788313 0.49986318 -2.8816946 1.1785597 0.4113551 0.8419688 0.97934145 1.8329616 -0.50308526 -3.4686587 -4.733425 -0.6161221 0.04008323 0.25576133 -3.1891644 1.7383103 0.89125335 1.291267 0.17116846 0.7642872 0.624635 -0.15701799 -1.2044194 -0.9488787 1.8979099 -1.5406389 -0.27284762 -0.04947534 -0.0838385 -0.1799432 1.2967933 0.5255389 -0.061099403 0.9595234 -0.30245078 1.3448113 -2.0990496 -0.4973942 1.1059718 -0.39344513 -0.49185446 -0.6146839 -0.8914807 0.36599562 0.094435625 -0.44394007 1.0732319
q 0.7805942 -0.27840877 -0.59120953 -0.73168033 -1.6510029 -0.5390083 0.6872502 -1.5267248 1.4875871 0.45998168 0.07580585 0.1008189 0.5460722 -0.9508406 0.026705695 0.33524808 -2.3609712 -1.0863796 -1.966452 0.3900291 -1.16967 1.1215304 0.57896996 1.8526319 0.38587952 0.13407052 0.40256256 -1.2361168 2.1424534 0.23047556 -0.20461826 0.2527819 0.46996832 -0.38183033 -0.6789084 0.9293321 3.124937 2.060799 0.22089237 -0.97092485 0.3624508 2.0568976 0.91392386 -1.5709702 0.80371976 0.78336906 -0.05273352 0.0018732331 1.186982 -0.2505637 0.0441562 -0.2591619 0.80171317 0.8332161 -0.9401975 -0.52292055 1.7183828 0.13805261 -1.0780296 0.11012653 -1.232871 1.4981436 0.07688229 -0.7728404 1.1610918 -0.2086715 2.7939162 -1.3646201 1.2203257 0.18043901 0.5873268 0.5851388 0.5172197 -0.299147 -1.4478397 0.13516785 0.5773482 0.24116611 -0.07268798 -0.673092 0.3764838 -1.881049 0.81768906 1.2816793 1.4444026 0.50188345 1.2687379 -0.77368325 0.3396805 -1.7105153 0.15607375 -0.14292888 0.041140754 0.055052735 0.4617541 -0.56793606 0.4194344 1.5093056 1.043636 1.387604
M 0.86951107 3.2872217 -1.0261885 0.74110323 -1.5823253 -0.29185498 0.6045099 -1.4416732 0.042273354 0.23915978 -1.6417754 -0.29653355 -1.147189 -0.8449742 0.24543218 -1.0864336 -1.0146769 1.9443645 1.4034388 -1.6876351 -2.3331063 -1.8969568 2.482321 -0.5615503 0.38996565 0.96586996 0.54442275 -1.8803586 1.5954927 -0.7755247 -0.62688965 0.22639894 0.5948343 -0.3593986 -1.2294664 1.7257767 1.2214955 2.6338384 -1.3019686 -1.3370397 0.49711886 0.48881155 0.6631117 0.09521579 -0.13582675 -0.10887263 -0.94392914 -1.6078821 -1.2226574 -2.1913657 0.27668944 -0.44803473 -0.20811287 2.9034243 1.9654531 -1.7950988 0.9686872 1.1600485 0.06714312 -1.0580305 -1.0691973 -0.5836745 -2.6040788 -0.9505425 -0.49220413 -0.24788228 1.1959867 -3.0939274 -0.5057619 0.9001764 -0.34871674 -0.55625427 -0.42467493 1.183421 -1.230628 -2.7032528 -0.03716444 1.1633176 -1.1461895 -0.5209774 -1.6461217 0.03478734 -0.20442821 -0.93159986 0.026734266 -0.7007084 2.5347826 -0.18335222 -0.73591524 -1.8342675 -0.05313061 1.3981776 -1.4175261 -1.7236296 -1.5194122 0.42436418 1.5896367 -1.1893306 1.1846927 1.7180923
Y 0.066822134 -0.93766946 -2.4577787 -0.7124092 -3.2207499 0.22571716 0.80882525 -1.6143087 1.2725282 1.6942152 -1.7595094 -1.2975894 -0.51107746 -0.6233253 1.8626875 0.9473025 -0.22809425 1.2677851 0.90960455 0.7242134 -0.32649994 -0.37398955 2.5174255 0.8229421 0.7186308 -0.451297 1.3586388 -1.6799171 1.0119332 0.32465303 1.8274726 1.0491902 0.38729277 -0.6715002 -1.6486408 0.57290614 2.203592 1.4574178 -1.3549248 0.5743646 -0.21499425 0.5902649 -0.451158 0.104406595 1.1613231 1.2765594 -0.9149551 -1.3405296 0.4600656 -2.036244 -0.85743916 -1.0657154 -0.8463193 2.6632123 -0.46634525 -1.2778145 1.8406154 0.8695274 -0.115438625 -0.41222674 -1.6354675 0.7031496 -1.5038654 -1.3117712 0.49817452 -2.0247252 1.3471823 -1.3034647 0.9370963 0.1334843 -1.1521318 0.05664186 1.3274881 -0.34039 -0.93736273 -1.725548 0.4131094 1.028059 -0.91455674 -1.0366011 -0.75446254 0.27778205 -1.4524163 0.56487083 1.041305 -1.550627 1.1575544 -1.6064034 2.644195 -1.6115164 -0.6161676 2.026551 -0.42813188 -1.6238766 0.35828182 -1.6485671 1.0280684 -0.9200129 0.95351535 0.47398353
W -0.9464053 0.59821427 -0.5769781 -0.89073646 -2.1187124 0.41958556 -0.2677115 -0.91260064 0.95351124 1.5294847 -0.6098303 -0.86865973 -0.7681565 0.18320185 2.6137674 -0.30156073 1.0246837 -0.14214587 -0.8164655 0.42318028 0.5026904 0.25767145 1.7053982 -1.1020437 0.29224372 0.25602004 1.0370705 -0.8593754 -0.09182071 0.68685544 1.6420082 -0.6337 0.31286657 -1.1998497 -1.1753452 -0.92222595 1.640982 1.1856143 -0.586714 0.54657733 0.9950981 -0.8464296 -0.004021281 -0.6354756 2.3582237 -0.33132935 -0.6962728 0.031869322 -0.5507018 -0.8479678 0.13015512 -0.07035518 0.0049712965 2.5279872 0.26154083 -1.3263271 0.31627098 0.607105 0.020724315 0.6366849 -2.0259871 0.76803994 -0.42102432 -0.74151504 0.6269753 -0.8770474 0.75467044 -1.6080512 1.4350716 0.106841445 -0.38353565 1.1283298 1.1625702 0.3503675 -0.53351337 -1.3023036 0.4221044 0.829861 0.7563324 -0.6208044 -0.17412633 -0.32812217 -1.1570418 0.54423445 0.20027651 -0.7377598 1.1215647 -0.3673325 1.3577399 -2.1596367 -0.16977452 1.1402538 -0.6899262 -0.6998424 0.13510121 -0.8360969 1.8561649 -0.6711123 0.46044648 1.0871363
G 0.28103814 -0.07357131 -0.8141347 -0.38405052 -1.4911177 -0.05603863 0.10826908 -0.07141443 1.1489899 1.127721 -0.34376562 0.22782706 0.08106889 0.047996663 0.75442326 0.30490258 -0.73681235 0.5405678 -0.42162925 0.5997891 -0.5645549 -0.17899495 1.0408015 -0.34080216 -0.55611014 0.5157081 0.1199782 -0.98530596 0.34960106 0.12168809 0.084039606 -0.03261162 0.22454858 -1.2974856 -0.97910976 0.27244273 1.5627706 1.2700945 -0.1296777 0.18128483 -0.2513556 0.37062794 -0.28675175 -0.94464225 0.7428569 0.711662 -1.020835 -1.2159423 0.54451257 -0.7542631 0.2619156 -0.43961155 0.24827467 2.3788967 -0.109412834 0.47831902 -0.10532207 0.21316086 -0.06306265 0.21479529 -0.306778 0.04490885 -0.9666085 -1.0392843 0.42745587 -0.80902857 0.66136545 -1.445346 -0.0029013325 0.33775935 -0.5338248 0.3734089 1.1216456 0.65043646 -1.535159 -1.2349527 -0.1316363 0.3472113 -0.0071910014 -0.58850265 0.468134 -0.1091202 -1.0848116 -0.02091187 0.5303184 -0.8074602 1.4671589 -0.61906 0.7909405 -0.5680892 0.016007453 -0.102376126 -0.17051454 -1.139035 -1.1245651 -0.3904223 1.3106062 -0.51822954 1.1045356 0.14164452
Z 0.064623594 -1.1680601 -1.470956 -0.30608648 -2.6834037 0.2216818 0.8458105 -1.1164495 0.64464647 0.83132505 -0.6534978 -1.3036952 -1.2431873 -1.1859096 2.0517318 0.9811829 0.47941622 0.20132087 0.90260583 0.067935735 -0.87964404 -0.35147145 3.1038907 1.2978672 1.6787137 -0.46253997 1.5364516 -1.2670705 0.11099844 0.09404251 1.9629269 1.4671674 -0.023073198 -1.3339715 -1.2731867 -0.47987032 1.1280185 0.36351278 -0.039982628 0.599488 0.48818162 -0.20854469 -0.49010694 0.4572128 1.2670196 0.18219279 0.06785589 -0.27131468 -0.2016689 -1.0256308 -0.004480829 0.010506149 -0.28111398 1.937078 0.0019013737 -1.2998961 0.43501788 0.82174295 0.68649703 -0.97754735 -1.4804976 0.10642347 -0.88523436 -0.8187214 0.06573032 -1.4747968 0.93766946 -0.6241163 0.6658644 -0.24610361 -0.6491575 -0.23036838 0.34461617 0.47830382 -0.84304184 -1.0249678 0.36424404 0.6302002 -0.04977011 -1.707447 -0.13336623 0.78389144 -0.83486885 0.33700264 1.0459524 -2.0069737 0.8315478 -0.45758593 1.3910409 -1.5430799 -0.185069 1.6609879 1.012756 -0.6196098 0.16562757 -1.1307516 1.1315861 -0.11165071 0.8406208 1.0997345
J 0.64364254 0.50678456 -1.3152441 -0.21760248 -2.4038882 1.1989304 0.38067827 -0.7258017 0.38568377 0.47703132 -0.38084543 -0.3733474 -1.7324128 -0.42236573 1.7486492 -0.34028113 -0.4528335 0.31431895 -0.69028103 -0.01715277 0.29835004 -0.64851 1.3505094 -0.51686364 -0.18497841 0.24665923 0.60153764 -0.9424043 0.30846578 0.12122764 0.9148122 -0.3823066 0.7815681 -0.044929195 -1.2098758 -0.42442748 1.1785264 0.58712476 -1.06212 -0.66558784 0.6097873 0.5865826 0.79765016 0.411898 0.52362984 -0.24209842 -0.22382021 -0.013504395 -0.3757247 -0.92520005 -0.5973537 -0.095536426 0.5531807 1.8881017 -0.46089375 -0.4156182 1.5894681 1.2304373 0.3452239 -0.47677335 -0.9854289 0.6401257 -0.26615345 -0.56013995 0.4232068 -0.0034342143 0.4782346 -0.90510577 -0.26317334 0.5920223 0.073140986 1.4763671 0.15532634 0.39873797 -0.13176794 -0.34600425 0.19267416 -0.12661052 -1.2282621 0.21944094 0.12152002 0.58434236 -1.5926386 0.09836764 0.30893326 -0.7066551 -0.30323562 -0.1966761 1.0787125 -2.3115108 -1.0147758 0.8511583 0.07579437 -0.20986462 -0.39829957 -0.61116797 1.2560606 -0.5945702 0.039303392 1.3560201
K -0.9234469 1.1287866 0.15477918 0.5671978 -1.5792685 -0.2627721 -0.6659308 -0.39362565 0.16459893 -0.68059903 -0.22817194 0.118579105 -1.3708031 0.19788946 1.597 0.3861348 -1.5231011 -1.2492849 -0.80067533 -0.47700125 -1.0719562 -1.4896238 0.78831875 -0.72008044 -0.50162786 0.64000124 0.32647318 -0.93373036 0.14391518 -0.07781412 0.18580201 -0.15841389 0.32305896 0.07674468 -0.67945045 0.022303127 1.5960878 2.0633967 -0.47772548 0.0428351 1.122434 -0.5667891 -0.30850685 -0.7478418 0.60351753 0.93059915 -0.42217934 -0.45378253 -0.64504516 0.030648526 0.09993414 0.06627166 0.27518177 1.4950513 -0.7133786 -0.008732732 0.8413566 1.138081 -0.43427816 -0.13218348 -0.6522254 0.9571663 -1.2248145 -0.61139125 0.62933016 0.5330982 -0.64293635 -1.59574 -0.20341979 1.0988826 -0.7042127 1.6014211 -0.06111095 0.98477376 -1.6004909 -1.0754589 0.9849074 -0.3290067 -0.5774224 -0.5252135 0.58210254 -0.30156413 -0.51858187 0.02647617 0.54288846 -0.043076616 1.1928506 -0.30594447 0.62371063 -1.4501243 -0.20973846 -0.5189815 -0.29255834 0.20615913 -1.4716699 0.08455687 1.2105958 -0.57552004 0.628305 1.3961608
Q 0.08264433 1.025615 -0.87967443 -0.34278366 -2.1123848 0.69441795 0.19671181 -0.08476535 0.9827313 0.14151832 -0.40739477 -0.26888773 -0.9905162 0.3173577 1.2997144 -0.27345777 -0.10941762 0.121461265 -0.67791456 -0.48638567 -0.17896812 -0.8311559 1.0194724 -0.15654737 -0.57816565 0.3766351 -0.0754446 -0.77430195 0.5623472 0.049134757 0.4918999 -0.032741036 0.5189693 -0.6160691 -0.78066254 -0.2591153 1.8122221 1.3590848 0.09652685 -0.5281123 0.7565979 0.3411893 0.4432904 -0.70171285 0.64402604 0.53123355 -0.598352 -0.2600609 -0.030164191 -0.067094155 -0.35896587 -0.08182278 0.6300108 1.3933384 -0.2777802 -0.6921561 1.2329031 1.0718806 0.078737825 -0.28417492 -0.52328223 0.5051649 -1.0227058 -1.3493792 0.7152663 0.09093786 0.43294558 -1.2035105 0.15253548 0.8284766 -0.031439856 1.064982 0.19058459 0.4102875 -1.0074553 -0.45416197 0.009287147 0.35725433 -1.2709124 -0.34260535 -0.078485765 -0.026092354 -0.8830124 0.61164635 0.46109623 -0.4012964 0.25710538 -0.5521439 0.7691149 -2.0694997 0.011561143 0.16214877 -0.113548845 0.033598512 -0.9150004 -0.88499147 0.53631204 -0.20474964 0.671309 1.2436383
 0.85937566 -0.26226383 0.6207418 -0.4927185 -0.55036664 -0.55307 0.27785978 -0.18626158 1.5343236 1.7693415 -0.157375 1.1722381 0.9649463 -0.15151809 -0.8015992 0.093911946 0.3029858 0.6435233 0.18970503 0.66931796 -0.5178913 -0.16675934 0.54692274 -0.1350795 0.007378623 0.2167002 -0.63091576 -0.30819425 1.0352788 0.5011933 0.6749363 -0.99289167 0.5739945 -1.5390987 -0.16111109 -0.36612514 1.8452863 1.8091768 -0.05611415 0.1631398 1.6376882 -0.25874454 0.7106618 -1.2619896 0.38430843 -0.6751512 0.15924303 -0.19820315 -0.8946779 -0.32723427 0.7604215 -0.062043488 0.8104163 1.1711489 -0.012848562 -0.21761912 -0.26913488 -0.88908404 0.36383054 -0.17051822 -0.88677824 0.13120088 -0.20463933 -1.5206192 0.09569631 -0.72697824 0.61400926 -1.0133036 0.58788127 0.62171835 1.2880204 0.9001416 0.4833612 0.42639366 -1.5310147 -0.21809646 -0.21704797 0.6143431 0.22242369 0.15411897 0.46882832 0.15702926 0.97834104 0.020904733 0.87728906 0.16038898 0.2882928 -1.2754753 -0.6611627 -2.4227755 0.31067356 -0.25738814 1.2076716 -1.1011989 -1.0998559 -0.95964277 1.3345892 -0.211708 -0.5471607 -0.04280466
" -0.57410854 1.0911696 0.34649342 1.4011523 -0.46770045 -0.36984858 -0.16819851 0.29028198 1.1864672 -0.02812846 -0.5732325 0.7342262 0.42267695 -0.079837 0.7905549 -0.0647062 1.0037658 0.82403296 -0.0052763107 -0.32125708 0.19351727 -0.5261096 0.065055445 -0.018215796 0.01617376 -0.23410256 -0.6767715 -0.3002324 0.80235416 0.6866945 1.5546421 -0.31125903 0.18634741 0.14708862 -0.023945747 -0.91557586 1.4734126 1.2548075 0.015405942 -0.23838925 0.9560348 0.094265446 0.7246249 -0.76561165 -0.20953801 -0.32522497 -1.1121665 -0.41746554 -0.8087247 0.68251896 -0.13076758 0.17366357 0.3785998 0.57687587 -1.2077065 0.43311197 0.25161403 -1.4574558 -1.1176634 0.46702683 -0.021665473 0.93983835 -0.74738115 -1.6564707 -0.070936844 0.15252115 0.04327726 -0.59819824 -0.004127206 0.22912784 0.20247237 0.55080026 0.83951384 -0.41224143 0.9272926 -0.41825634 -0.5657456 0.7330202 0.7146688 0.98568183 0.9440003 0.4006441 0.5154594 0.264227 0.48705736 0.4965626 -0.02794366 -0.052369293 -0.04741856 -0.46302608 -0.16550939 -1.1447299 0.43708062 -0.10295703 -1.4446425 0.21347307 -0.13208969 0.15441465 0.070277065 -1.2907066
$ -0.030597152 0.4436034 0.06310898 0.37217793 -0.36122516 -0.13132936 0.164039 0.21590774 0.19648372 -0.35941398 0.27976295 -0.2163541 -0.20418286 0.22017919 0.7208061 -0.21882349 0.07114469 0.24941762 0.3689552 -0.73305964 0.037263017 0.17683288 0.76316816 0.084581085 0.00904755 0.60095876 -0.2338351 -0.4925489 0.713958 0.8463984 0.06921382 -0.546633 0.06585693 -0.4543621 -0.13925582 -0.23592386 0.5315907 0.015145478 -0.3472213 0.119751796 -0.2200723 -0.35519397 -0.91714305 -0.84312147 0.018037092 -0.7131765 -0.22822192 0.17972513 -0.5764646 0.8890346 0.39235494 0.14138862 0.78909725 0.08695323 0.43300033 0.51779056 -0.085654005 -0.64638776 0.30020455 -0.60217094 -0.45847178 0.32547614 0.13663971 0.23113273 0.08256951 0.26813382 -0.594531 0.24334602 -0.5145826 -0.10728873 -0.9703609 0.39276284 -0.029891804 0.20678908 0.025625234 -0.28621808 0.18239665 -0.5315139 0.04791687 -0.8560145 0.61681324 -0.12016524 -0.4966178 -0.13348094 -0.70699203 -0.419744 0.029829232 -0.31640297 -0.15311123 -0.67289144 0.103756346 -1.1480743 1.0232607 -0.1569111 -0.2532136 0.8016464 1.400041 0.20493811 -0.36908686 0.2244257
! 0.057931084 0.29539403 -0.21348983 0.15334216 -0.5452552 0.12502074 0.39617 0.0505207 0.21147706 -0.05283085 -0.03753548 -0.081970766 -0.38034362 0.3675758 0.98214155 -0.19696313 0.12100468 -0.012978455 -0.06716563 -0.29389334 -0.1451836 0.18054286 0.7270246 -0.008600911 0.11973272 0.17242707 -0.29066944 -0.3056564 0.31214702 0.11057628 0.17814064 0.3881172 0.03648184 -0.4584526 -0.4318066 -0.2550028 0.6393344 0.52889276 -0.21412589 -0.31122583 -0.07800364 0.11766436 0.13907146 -0.31898686 0.007014528 0.21165347 -0.09869773 -0.20619299 0.046507765 -0.08330055 0.18887955 -0.1035496 -0.061117616 0.54356664 -0.061570954 -0.16114499 0.5124405 -0.13299479 -0.18300916 0.41462895 -0.12680055 0.27235162 -0.34623095 -0.40716028 0.3797403 0.18098953 -0.042976204 -0.14632495 0.27752545 -0.037772533 -0.30776817 0.3295048 0.26100242 -0.18868682 0.04606694 -0.39748222 -0.08147439 0.29075482 0.29321843 0.241531 0.2191729 -0.18487094 0.11794357 0.071446426 -0.012597601 -0.16328272 0.21180256 -0.20106106 0.44786963 -0.3349362 -0.086282365 -0.49139082 0.009032096 -0.010622201 -0.09274955 -0.16360565 0.403274 0.06619833 -0.08375939 0.05981951
~ -0.0577337 0.12880775 -0.14953633 -0.10978596 0.024628747 -0.086566575 0.030653456 -0.07363662 0.013114603 0.2114111 -0.12583 -0.02500734 0.18588856 0.09227229 -0.13458452 0.12866326 0.13163608 0.24845275 0.20190543 -0.011541709 0.0027395831 0.00034611806 0.08150851 0.05444607 0.13843653 0.032498416 -0.010964287 -0.082233876 0.13275775 0.17912924 0.0076159462 -0.111070044 0.00079508446 -0.11351498 -0.07033678 0.1035907 0.14857261 0.099509396 -0.028010763 0.05439166 0.192 -0.118292026 -0.06313867 -0.008997273 -0.045203775 -0.098445944 0.10761419 -0.04080656 -0.07849066 0.021383539 0.049108677 0.13356438 0.037732538 0.045469694 -0.011680788 -0.17344773 -0.028351746 -0.07763267 0.08505287 0.085563205 -0.12098658 0.13066363 -0.06113736 -0.061558086 -0.05898868 -0.098243766 -0.10306094 0.024258498 0.110152096 0.023128508 0.118158266 -0.043140624 0.020681601 -0.04268754 -0.032599814 -0.077995636 -0.14495772 -0.021020964 0.023652492 0.02629674 -0.06994079 -0.014080165 0.06452122 0.106408305 0.11671624 0.04137647 0.047051895 -0.06028427 -0.020707197 -0.012652531 0.042842884 0.053288598 0.12985283 -0.07991622 0.11739216 -0.022414977 0.09225214 0.012607126 -0.10059183 0.06834642
 0.08870848 0.1891133 -0.16583914 0.049907282 -0.3279027 -0.07459129 0.13546664 -0.2564875 0.1834049 -0.017507711 -0.034512673 0.02332472 0.09114881 0.1654663 0.2491121 0.16494998 0.38691399 0.18284392 0.09107842 -0.11260905 -0.066984646 -0.36239952 0.5600044 0.055804756 -0.078429304 -0.05017557 0.082627006 -0.1856374 0.1202487 0.04305082 0.22737066 0.019008871 0.047454666 -0.40732187 -0.36127058 0.11921946 0.3768521 0.10134948 0.0057006893 0.064620726 0.33835745 -0.1608281 0.16428906 -0.19445866 0.12868047 -0.050452486 -0.017431619 0.00453493 0.1886513 -0.064977184 0.14157118 -0.060493782 0.077829875 0.05542047 -0.10868359 -0.14004931 0.040031705 0.02855665 0.114501655 -0.11680452 -0.24342902 0.039000805 -0.094692364 -0.28248256 -0.075933576 -0.13449751 0.10553368 -0.25854144 0.055745337 -0.05259876 -0.0037698476 0.059437502 0.09760155 -0.051401116 -0.13713889 -0.03439318 -0.14412187 0.17688262 -0.052048653 -0.18496965 0.051580038 -0.017021753 -0.120826416 0.14491764 0.043182027 -0.097744964 -0.13019174 -0.11864756 0.19659118 -0.34015462 -0.062272195 0.11748931 0.19835438 -0.016380267 -0.13944663 -0.027573561 0.116883166 0.06569975 0.029160436 0.08263657
 0.042567644 0.22228931 -0.16623588 0.028273698 -0.3424503 -0.029146152 0.10842046 -0.2684834 0.23221678 0.10806249 -0.08048712 0.039745722 0.1351436 0.19825722 0.18600193 0.19990627 0.39371777 0.2565226 0.1325227 -0.09897801 -0.0844093 -0.3582219 0.56919545 0.061230462 -0.11275287 -0.011052272 0.06827153 -0.1710804 0.17478743 0.1583934 0.25998148 -0.022857314 0.08285878 -0.41641203 -0.35685837 0.08976172 0.40668163 0.101312935 -0.0952733 0.12684773 0.32410005 -0.18546721 0.12484235 -0.2031364 0.11164594 -0.057005405 -0.015237234 0.02511378 0.152646 -0.004155616 0.119348414 -0.09140615 0.0965734 0.04415607 -0.103663914 -0.19353792 0.09628994 -0.028032685 0.13213846 -0.11105708 -0.2745529 0.10163519 -0.11719049 -0.3635907 -0.11872653 -0.13679013 0.08394561 -0.20975934 0.01794752 0.015302338 0.013762934 -0.010603763 0.14403965 -0.071663834 -0.10604527 -0.06869588 -0.17853114 0.14244804 -0.02832484 -0.24368614 0.037703227 -0.01912945 -0.071796924 0.2548857 0.07717643 -0.09101681 -0.1287823 -0.006298843 0.15869665 -0.33693203 -0.08569937 0.07149949 0.2553666 -0.007256108 -0.104011506 0.028782154 0.17485249 0.08760624 -0.07234017 0.15829092
 -0.031756166 0.29809332 -0.1640748 0.010222695 -0.39574438 0.016484246 0.022452792 -0.34574553 0.29299095 0.17869799 -0.10476962 0.010605383 0.15168352 0.25926036 0.1799267 0.24068037 0.51996684 0.40569744 0.17038475 -0.1754083 -0.105354086 -0.44182682 0.6916507 0.10213039 -0.029744873 -0.018305937 -0.034056053 -0.19401893 0.32897958 0.22376084 0.46405694 -0.00624824 0.008088488 -0.55455774 -0.32438403 -0.0259768 0.5334506 0.036458656 -0.114974596 0.0596989 0.48115006 -0.40558094 0.22840998 -0.20766217 0.15657696 -0.09604204 0.018113056 -0.035249397 0.20703366 -0.05778327 0.28786272 -0.08097918 0.20973489 0.1240415 -0.09148014 -0.32226953 0.1373656 0.04753453 0.2830232 -0.002961504 -0.29836935 0.11371606 -0.13188338 -0.4743565 -0.15557563 -0.22073394 -0.049759835 -0.20771094 0.018436417 0.12989809 0.17408732 0.0126982825 0.11644003 -0.036276955 -0.18985102 -0.18131123 -0.31281623 0.19536205 -0.27427965 -0.33342615 0.03386249 0.08390176 -0.12680747 0.2802946 0.12872861 -0.11347158 -0.17023104 -0.21653724 0.20000371 -0.4944514 -0.23356473 0.06979272 0.45759755 0.14565223 -0.07632886 -0.21434712 0.11855328 0.09847466 -0.2035488 0.2816684
